lstm/lstm_cell/kernel:0
(1, 320)
[[ 0.0795549  -0.00736014  0.12424947 -0.14880838  0.14740643  0.14533919
   0.02708578  0.14476162  0.05826171 -0.07730747 -0.02774641  0.05187181
  -0.05185355 -0.10003752  0.14901634  0.22220322 -0.03909037  0.00864592
   0.08864582  0.17179318  0.09504686 -0.01828444  0.10235685  0.01440472
   0.06596152 -0.03227471  0.14881168  0.03209758 -0.06960924  0.05339759
   0.12724535  0.01239275 -0.06913337 -0.10933741  0.0187025  -0.04249792
   0.01042775  0.06660375  0.00316562  0.03640396  0.15335636 -0.00685259
  -0.07058596  0.09761     0.07427049 -0.08981895 -0.07068917  0.07146983
   0.01200077  0.0522763  -0.06373432  0.07467937 -0.03123532 -0.02181915
   0.19434895 -0.09158236 -0.13044757  0.14247692  0.03730919 -0.01180248
  -0.06759177  0.16373357  0.12411153 -0.04402553  0.08774337  0.14055572
   0.0064957   0.0696625  -0.03626356 -0.06527002  0.08225732  0.10404111
   0.12430453  0.05001689  0.11527941 -0.05691059 -0.14410734  0.02504276
  -0.05699597 -0.12477013 -0.00732415  0.06656598  0.12366442 -0.03202743
   0.00654055 -0.01411996  0.09919142  0.03962198  0.0816357   0.13714734
  -0.03360505  0.12391374  0.03812583  0.06093657  0.06209708  0.14140593
  -0.11236203  0.10893337 -0.08755758 -0.09666832 -0.06575503  0.04484632
   0.0417725   0.14049214 -0.00263268 -0.0149165  -0.11872824 -0.02582978
  -0.0053949  -0.00076125  0.07689497  0.01469511  0.09335642 -0.08968081
   0.02018074  0.05294371  0.1323646  -0.02456888  0.03425995 -0.00437647
   0.02608829  0.04324939  0.07450381 -0.10343918  0.00668781 -0.00896559
   0.08466429  0.093321   -0.11652026  0.03966348  0.03169517  0.13582212
  -0.07583634 -0.11187881  0.05931928  0.1299529   0.01861437 -0.06033813
   0.06702196  0.09236078 -0.12025955 -0.12147027  0.0438837   0.0090269
  -0.036736    0.01846365  0.08327331 -0.04541597 -0.02521595 -0.09746572
   0.10138986  0.05668687  0.02101211  0.08755314 -0.08036648  0.01653825
   0.00164283  0.0976899   0.00735703 -0.1364766  -0.09699038 -0.0882099
   0.08930263 -0.03353408 -0.1300623   0.12077828  0.04387635 -0.06082951
   0.04849895  0.13280237 -0.05803708 -0.07202642 -0.03401912  0.03436531
   0.09449191  0.10809995  0.13323714 -0.04458074  0.09680685  0.15059215
   0.06393394  0.07420737  0.12570752 -0.13052629  0.1281602  -0.08259114
  -0.10822146 -0.06858914  0.13094337 -0.10261232 -0.06504653 -0.00318494
   0.03701178 -0.02461134  0.15850465 -0.04861608 -0.06924447  0.0960548
   0.07244251  0.06980865  0.04089683  0.08955984  0.08803364  0.11638075
  -0.09091113  0.0117322   0.06593302  0.11991306 -0.02337934  0.08588463
  -0.09322187 -0.03361727 -0.0878315   0.10944334 -0.09312958 -0.02284687
   0.00090033 -0.09195581 -0.10557244  0.10274918  0.13476905 -0.13758186
  -0.12902398 -0.01648727  0.04866268 -0.12405593  0.02027121  0.12394287
  -0.12955181 -0.03970743 -0.038753   -0.044664    0.05570181 -0.14516123
  -0.12343912 -0.02549243 -0.05706271  0.10886725 -0.12208274  0.02371582
   0.08273304  0.01707186  0.06660917  0.06358869  0.09928446  0.11465647
   0.09002592  0.08843931  0.07329214  0.14250092  0.11654517 -0.03913979
   0.04057644  0.10708605 -0.03461777  0.07281134 -0.06265572  0.0714628
   0.15235795  0.01996331 -0.03454708 -0.03502826  0.06670958  0.08610395
   0.12008113  0.0020802   0.10295866  0.04679937 -0.00506949  0.03218678
  -0.03793178  0.02180401  0.03857505  0.10108138  0.24534497  0.08670685
   0.12523833 -0.09715042  0.01220468  0.06268627  0.19268869 -0.03770049
  -0.02274657  0.14617242  0.16306709 -0.07702111 -0.01391263  0.09412406
  -0.09640983  0.05982545  0.02229442 -0.05370083  0.20599426 -0.04304181
   0.18334447  0.04469934  0.04162915 -0.09310434  0.14116278 -0.05518914
  -0.06709936  0.22845767  0.1506342   0.10584223 -0.05285663 -0.10310468
  -0.04293345 -0.0984605  -0.00646735  0.00701712 -0.01427789 -0.11837302
   0.05156792  0.03208733  0.03601512 -0.08040317 -0.08335712  0.1330098
   0.01427678 -0.04864745]]
lstm/lstm_cell/recurrent_kernel:0
(80, 320)
[[-0.1132782  -0.00785762 -0.00549355 ... -0.07895023  0.07751577
  -0.08309608]
 [-0.07387329  0.02512366  0.08971341 ... -0.02996964 -0.04706001
   0.01020995]
 [-0.03653426 -0.02142319 -0.05051129 ...  0.00467981  0.0384359
  -0.03628456]
 ...
 [ 0.01847308 -0.00530263  0.06764404 ...  0.09042986  0.07873093
   0.03154019]
 [-0.00039083 -0.07219448 -0.02707712 ... -0.03677138  0.04107427
  -0.01328129]
 [ 0.01564712  0.11772549  0.07685166 ...  0.07341943 -0.03076755
   0.05328597]]
lstm/lstm_cell/bias:0
(320,)
[-1.21443681e-02  1.40552474e-02  4.48454358e-03 -3.20657268e-02
  3.64167243e-02  5.44228218e-03 -7.29976315e-03  4.10864083e-03
 -2.83935177e-03  1.16963480e-02 -1.05734095e-02  4.97154659e-03
  2.47060750e-02  2.39526993e-03  1.18370457e-02  4.74480838e-02
  4.80910810e-03  1.69407600e-03  3.71972611e-03  6.10703491e-02
 -1.12457313e-02 -2.75881821e-03 -3.68342432e-03 -1.29704783e-03
  7.08361622e-03  3.10322270e-03  3.93094588e-03  2.82988767e-03
  8.69040668e-04  8.89723562e-03  1.20353838e-03 -6.35879580e-03
 -1.02894744e-02 -4.67764353e-03  5.69861867e-02 -7.19252042e-04
 -3.06211342e-03 -1.69730966e-03  1.76688796e-03  3.68453329e-03
  3.72990919e-03  1.30652729e-02  1.33968536e-02 -1.18150953e-02
  1.36192087e-02 -2.84867221e-03 -3.67804803e-03 -6.68981485e-03
 -1.57550015e-02  1.54368170e-02 -7.20757525e-04  3.83397634e-03
  1.42532038e-02  6.02174690e-03  2.63435487e-02 -5.74668497e-03
 -7.42445374e-03 -7.99026922e-04 -3.28166480e-03  1.60315074e-03
  1.62608866e-02  7.83576965e-02  3.31400987e-03 -1.68384127e-02
 -6.31796708e-03 -3.76270473e-05 -1.95312370e-02  1.31639070e-03
 -3.98993026e-03 -6.22645672e-03  2.21651304e-03 -1.19796973e-02
  1.90879800e-03  4.93909754e-02  7.81102898e-03  1.36683520e-03
 -1.90732833e-02  4.84756120e-02  3.35513055e-02 -1.92243289e-02
  9.88777995e-01  9.78635669e-01  9.96764481e-01  9.60458875e-01
  9.96791482e-01  9.95760202e-01  9.75628197e-01  9.93580937e-01
  9.93025243e-01  9.83487606e-01  9.88145828e-01  9.94722724e-01
  9.98818934e-01  1.00140285e+00  9.76815641e-01  9.56028581e-01
  9.91412044e-01  9.93354082e-01  9.94306207e-01  9.65365589e-01
  9.83051121e-01  9.72335100e-01  9.85763490e-01  9.90397215e-01
  9.93912816e-01  9.91753399e-01  9.92960632e-01  9.95315969e-01
  9.94241893e-01  9.91856813e-01  9.96055841e-01  9.92466569e-01
  9.88577068e-01  9.91127551e-01  9.89475787e-01  9.82767224e-01
  9.75230455e-01  9.91543770e-01  9.80857074e-01  9.96779382e-01
  9.78495896e-01  9.96053100e-01  9.87482190e-01  9.80801880e-01
  9.91029620e-01  9.91762519e-01  9.88378406e-01  9.89537776e-01
  9.77771699e-01  9.87360239e-01  9.80970144e-01  9.99232829e-01
  9.56806779e-01  9.94747281e-01  9.81103122e-01  9.85352278e-01
  9.92108405e-01  9.89838421e-01  9.86912191e-01  9.93113875e-01
  9.89190996e-01  9.66360211e-01  9.95315433e-01  9.65292811e-01
  9.92118955e-01  9.97183502e-01  9.81089532e-01  9.93968666e-01
  9.89053965e-01  9.86665726e-01  9.90200818e-01  9.86105621e-01
  9.91880059e-01  9.87291038e-01  9.91328061e-01  9.99078989e-01
  9.77484703e-01  9.89051998e-01  9.84499037e-01  9.76278663e-01
  1.42446337e-02  1.99973602e-02 -1.23086143e-02  8.35392810e-03
  1.92631911e-02 -1.45934857e-02 -1.09028490e-02  1.07939709e-02
 -9.05160513e-03 -1.90571938e-02  1.69292409e-02  9.10000969e-03
  4.17980319e-03 -4.88007488e-03 -8.98266584e-03 -1.69323795e-02
 -1.91195514e-02  1.02860304e-02 -1.41608175e-02 -2.32856348e-02
 -1.42510673e-02 -1.12097822e-02 -2.20613275e-02  2.06610616e-02
 -1.56151745e-02  1.35081885e-02  1.46926735e-02  1.18608875e-02
 -1.41885979e-02  1.80836171e-02  9.09682922e-03 -2.98377080e-03
 -9.10647027e-03  1.05913915e-02 -2.70950384e-02  1.37886591e-02
  1.07027115e-02 -1.25870565e-02 -1.62635166e-02 -9.84177552e-03
  1.28926919e-03 -1.36674782e-02 -1.76936891e-02 -2.49363221e-02
  1.52195217e-02 -8.67254473e-03 -1.30201643e-02 -2.34125927e-02
  1.37498192e-02 -1.65091548e-02  1.96130183e-02  3.58272484e-03
  9.39389970e-03 -1.81605332e-02  2.15210617e-02  3.75243323e-03
  4.09563072e-04  1.64841339e-02  1.77313127e-02 -1.77943408e-02
 -2.43381690e-02  2.54096296e-02  1.84489135e-02  4.96348972e-03
  1.92244083e-03  1.32924002e-02 -4.21597064e-03 -1.90399326e-02
  1.48636242e-02  1.84324346e-02  1.13131925e-02  1.06054535e-02
 -1.06973536e-02  2.57481690e-02  1.65486746e-02  4.70507983e-03
  1.37357851e-02 -1.62257683e-02  2.01560110e-02 -8.60686507e-03
 -1.19863711e-02  1.36806937e-02  4.43989458e-03 -3.28694060e-02
  3.60599644e-02  5.36868814e-03 -9.29859187e-03  4.03622957e-03
 -2.91910395e-03  9.11355577e-03 -1.06982300e-02  5.76769048e-03
  2.29070727e-02  1.53446558e-03  1.53564699e-02  4.88255434e-02
  5.26698213e-03  1.01265323e-03  2.64486647e-03  6.22581579e-02
 -1.07881445e-02 -2.06349278e-03 -3.51094338e-03 -2.21270393e-03
  6.05403306e-03  2.94369180e-03  4.28995723e-03  2.72010639e-03
  7.06237101e-04  8.88836011e-03  2.05496117e-03 -6.27531391e-03
 -1.01728048e-02 -5.60389645e-03  4.74192947e-02 -7.30742468e-04
 -5.21668093e-03 -5.73708152e-04  1.81824830e-03  3.44123435e-03
  1.63486111e-03  1.36468550e-02  1.30550088e-02 -1.24474466e-02
  1.18955923e-02 -2.64137448e-03 -3.76304029e-03 -6.91639306e-03
 -1.47020062e-02  1.47975953e-02 -8.23045732e-04  4.57505602e-03
  6.89124363e-03  6.30795863e-03  2.42282860e-02 -6.32986380e-03
 -7.78981345e-03  1.31408416e-03 -4.61169891e-03  2.20887363e-03
  1.59502402e-02  7.58254528e-02  2.62489216e-03 -1.86917614e-02
 -6.17393618e-03  1.51343050e-03 -1.94812827e-02  2.94395443e-03
 -4.08568094e-03 -6.15671743e-03  3.16675752e-03 -1.26766693e-02
  2.39432580e-03  4.92739379e-02  8.40581860e-03  1.37466285e-03
 -1.90165006e-02  4.43957932e-02  3.30200270e-02 -1.92016177e-02]
lstm_1/lstm_cell_1/kernel:0
(80, 400)
[[-0.08023725 -0.07139662 -0.00365738 ... -0.08171986 -0.06239356
   0.02360365]
 [-0.10604412  0.05574411 -0.07467765 ... -0.04832755 -0.01228011
   0.09719724]
 [-0.08021052 -0.07639924  0.00542122 ... -0.00188702  0.05014788
   0.01967493]
 ...
 [-0.09271059 -0.07560022 -0.06127882 ...  0.01953365  0.08018772
   0.12501822]
 [-0.11632819 -0.13809936 -0.04314598 ... -0.03695231  0.01292396
  -0.01747503]
 [-0.00056353 -0.02826528  0.06337373 ... -0.0444764   0.06392478
  -0.07253035]]
lstm_1/lstm_cell_1/recurrent_kernel:0
(100, 400)
[[-0.04862825 -0.00175957  0.05794329 ... -0.06810755  0.01189851
  -0.0258447 ]
 [-0.06186403 -0.01772407  0.0120635  ...  0.04850829 -0.03549643
  -0.03756949]
 [ 0.05126467 -0.01058917  0.03131672 ... -0.12864451  0.01327005
   0.07798796]
 ...
 [-0.08521825  0.14182517 -0.01563127 ... -0.00688076 -0.06603039
   0.04511232]
 [ 0.02668132  0.10086854  0.03210625 ... -0.02086315  0.07466928
   0.02353847]
 [ 0.06463554 -0.01401854  0.02536308 ... -0.03558722 -0.02084049
   0.01046731]]
lstm_1/lstm_cell_1/bias:0
(400,)
[ 2.16959300e-03 -2.79937754e-03 -2.24927142e-02  2.74620811e-03
  1.03614302e-02  6.02048077e-03 -1.35379378e-02  2.48168893e-02
 -2.06311326e-03 -3.68405919e-04 -2.13236804e-03 -7.61452480e-04
 -3.14142718e-03 -3.62884346e-03 -1.84677504e-02 -1.05712349e-02
 -5.95159503e-03 -3.70216444e-02 -2.58001462e-02 -6.81338133e-03
 -9.49775707e-03 -1.82155333e-02  1.62636582e-03 -1.21052880e-02
 -4.23917435e-02 -6.61815517e-03 -1.56450346e-02 -2.26069149e-03
 -1.70620077e-03 -1.57570485e-02  8.99299266e-05 -1.08282734e-02
 -3.06175859e-03  1.88480772e-03 -5.14117768e-03 -1.02667585e-02
 -1.05420593e-02 -8.36482272e-03 -2.29034126e-02 -1.65172927e-02
 -8.84158071e-03 -5.15025621e-03  8.91801436e-04 -2.34746654e-02
 -2.72567030e-02 -8.81293416e-03  3.55199154e-06 -1.12021295e-02
 -2.03723144e-02 -4.68438398e-03 -1.23983948e-02 -1.28386905e-02
  5.93831809e-03 -5.90674719e-03 -1.69016533e-02 -1.54105462e-02
 -3.37708443e-02  3.88511427e-04 -1.85999216e-03 -1.97449401e-02
  6.46210508e-03 -3.19425762e-02 -1.09375792e-03 -7.25481252e-04
 -1.91794783e-02 -9.81176365e-03  1.16056210e-04 -3.21371923e-03
 -2.86441413e-04 -5.61037974e-04 -3.75958672e-03  5.61531680e-03
 -2.35367417e-02  2.13759299e-03  4.09574993e-03 -9.54270456e-03
 -4.23960388e-03 -1.31954625e-02  6.15320960e-03 -1.18271327e-02
 -1.25039937e-02  4.42116550e-04  2.08361028e-03 -2.86167162e-03
 -5.70106367e-03 -2.35422840e-03  2.99645995e-04 -2.14853846e-02
 -2.66748331e-02 -1.38514284e-02 -2.96344608e-03 -2.55600922e-02
 -1.71459951e-02 -3.53037310e-03  2.01278622e-03 -5.31783793e-04
  2.06954088e-02 -5.49201900e-03 -3.16139162e-02 -5.06469747e-03
  9.91285682e-01  9.91417229e-01  9.82848704e-01  9.98218477e-01
  1.00430083e+00  1.00489140e+00  9.61670995e-01  9.85724688e-01
  9.97575343e-01  1.00045311e+00  9.79673386e-01  9.98226285e-01
  9.93526757e-01  9.94220614e-01  9.83090997e-01  9.89650190e-01
  9.89125192e-01  9.60045815e-01  9.61519480e-01  9.93884385e-01
  9.94381130e-01  9.62833166e-01  1.00175738e+00  9.87958908e-01
  9.39703226e-01  9.58082557e-01  9.83178735e-01  9.92684722e-01
  9.95723367e-01  9.84020114e-01  9.88479197e-01  9.74684119e-01
  9.96461451e-01  9.99984086e-01  9.95647788e-01  9.89885449e-01
  9.86968815e-01  9.86961067e-01  9.65705752e-01  9.68552709e-01
  9.79998410e-01  9.94538486e-01  9.99912441e-01  9.59723592e-01
  9.61706460e-01  9.90683138e-01  9.99692023e-01  9.88456607e-01
  9.77935135e-01  9.85510945e-01  9.89086211e-01  9.85144794e-01
  9.80684221e-01  9.86581385e-01  9.79922056e-01  9.80603158e-01
  9.45053995e-01  1.00051212e+00  9.97600257e-01  9.77627337e-01
  1.00014257e+00  9.69881177e-01  9.96751130e-01  9.74225700e-01
  9.86874402e-01  9.86027837e-01  9.95307207e-01  9.93914545e-01
  9.99948204e-01  9.97405708e-01  9.94935095e-01  1.00094390e+00
  9.78715837e-01  1.00091529e+00  9.91847336e-01  9.90270734e-01
  9.95258212e-01  9.86586809e-01  1.00100100e+00  9.82395291e-01
  9.78074551e-01  1.00009000e+00  1.00049984e+00  9.96620953e-01
  9.72662151e-01  9.95797217e-01  9.95210826e-01  9.72630799e-01
  9.67265010e-01  9.84232783e-01  9.97369587e-01  9.69041467e-01
  9.84219909e-01  9.97050405e-01  9.95072782e-01  9.97669637e-01
  1.01117384e+00  9.97167230e-01  9.61118519e-01  9.95358944e-01
 -7.80918263e-03  2.89680436e-03  3.98582639e-03 -5.89463441e-03
 -1.21443179e-02  9.74611938e-03 -9.73762851e-03 -1.30555155e-02
 -9.70054977e-03 -2.89250957e-03 -1.01595484e-02  8.04562308e-03
  6.82493811e-03 -5.76367090e-03 -4.52355249e-03 -4.47923318e-03
  1.16576981e-02 -5.32661984e-03 -9.06105712e-03 -4.63841762e-03
  7.08456244e-03 -1.11158881e-02 -1.44370208e-02  7.34286569e-03
  1.22457659e-02  1.57885533e-02  7.46811740e-03 -1.22844269e-02
  8.21316522e-03  6.00299053e-03 -1.23355882e-02  4.57086461e-03
  5.35138231e-03  8.16795416e-03  4.90228785e-03  8.37788917e-03
 -5.87767642e-03  1.10729914e-02  4.76765446e-03  9.12276469e-03
  1.05377184e-02  6.11769361e-03 -9.41866823e-03 -5.70402527e-03
 -6.90561580e-03 -7.70186540e-03  5.60810976e-03 -7.85968266e-03
  4.78315214e-03 -1.40849715e-02  2.01550848e-03  5.52075962e-03
 -1.30999349e-02  7.89808575e-03  5.89976879e-03  1.12994295e-03
 -6.51734089e-03  6.37462689e-03 -1.64375664e-03  6.96475198e-03
  8.83099064e-03 -6.02769619e-03 -8.13215505e-03 -8.46236851e-03
 -8.07467010e-03  7.89691880e-03 -1.02506345e-02 -9.80751682e-03
 -7.92004261e-03 -7.34853745e-03  1.14296954e-02 -1.01631731e-02
 -1.01719312e-02  1.18118487e-02  1.04164891e-02  8.16600770e-03
 -3.95044265e-03  1.12687098e-02 -1.60930976e-02  8.41621123e-03
  3.41159059e-03 -1.00405905e-02  1.18484143e-02  1.09166726e-02
 -1.13177160e-02 -1.06615378e-02 -6.85048010e-03 -1.08932490e-02
 -6.26427354e-03  6.14401372e-03 -4.09191335e-03  6.10652985e-03
  5.36472490e-03 -6.89108996e-03 -9.17023048e-03 -7.55880261e-03
  1.28205149e-02  4.79836017e-03 -4.11729532e-04  8.22111033e-03
  1.36631436e-03 -3.67338979e-03 -2.17799377e-02  1.91420922e-03
  9.88459866e-03  4.40864777e-03 -1.49972457e-02  2.39328686e-02
 -2.78381235e-03 -4.29144100e-04 -3.17032565e-03 -2.62315664e-03
 -3.86479194e-03 -3.94653063e-03 -1.87612362e-02 -1.17344754e-02
 -6.48422772e-03 -3.90873440e-02 -2.67503485e-02 -6.87395455e-03
 -9.94369388e-03 -1.97521113e-02  1.23154500e-03 -1.32205421e-02
 -4.45219874e-02 -8.07386637e-03 -1.57015119e-02 -2.67955801e-03
 -2.04049633e-03 -1.51578691e-02 -2.37306784e-04 -1.31545123e-02
 -4.14820714e-03  1.39586709e-03 -5.17289434e-03 -1.03932079e-02
 -1.04753152e-02 -8.00243579e-03 -2.41674520e-02 -1.77513082e-02
 -1.05724344e-02 -5.38739841e-03  5.01990260e-04 -2.44891066e-02
 -2.75995955e-02 -9.29255784e-03 -1.17100403e-03 -1.17149819e-02
 -2.17620656e-02 -6.30330853e-03 -1.23380646e-02 -1.30283237e-02
  6.13301760e-03 -6.03472255e-03 -1.72873307e-02 -1.64228119e-02
 -3.41957361e-02 -6.02704473e-04 -1.66278775e-03 -2.08979119e-02
  4.92743356e-03 -3.14952135e-02 -1.77172862e-03 -1.47349830e-03
 -1.89583730e-02 -1.01197008e-02 -3.43725458e-03 -3.93432705e-03
 -8.13095015e-04 -9.55392956e-04 -4.28457232e-03  5.63865667e-03
 -2.41723061e-02  1.31839444e-03  1.30090152e-03 -1.00530488e-02
 -4.76447679e-03 -1.37947416e-02  5.81993628e-03 -1.20182605e-02
 -1.43901920e-02 -2.34142208e-04  1.16260292e-03 -3.53839761e-03
 -6.37634704e-03 -2.69418000e-03 -5.30079851e-05 -2.22347472e-02
 -2.51085926e-02 -1.36870891e-02 -3.10496287e-03 -2.54750215e-02
 -1.69190038e-02 -3.96251166e-03  1.51004619e-03 -1.79141271e-03
  2.01986507e-02 -6.28448511e-03 -3.32721174e-02 -5.31859789e-03]
dense_6/kernel:0
(100, 1)
[[-0.20592065]
 [ 0.13221598]
 [-0.16338904]
 [-0.07135619]
 [-0.15066467]
 [ 0.06731381]
 [-0.15588589]
 [-0.2510856 ]
 [-0.11473495]
 [-0.11473399]
 [-0.16648048]
 [ 0.0948655 ]
 [ 0.11358298]
 [-0.1142933 ]
 [-0.06206946]
 [-0.13290817]
 [ 0.16315357]
 [-0.21133508]
 [-0.18046528]
 [-0.21828687]
 [ 0.171681  ]
 [-0.16886699]
 [-0.18048756]
 [ 0.18435189]
 [ 0.10023277]
 [ 0.19671981]
 [ 0.19714347]
 [-0.17518818]
 [ 0.19701773]
 [ 0.18846324]
 [-0.20166439]
 [ 0.14952263]
 [ 0.08405336]
 [ 0.18960941]
 [ 0.2059914 ]
 [ 0.13368212]
 [-0.17172468]
 [ 0.07452695]
 [ 0.17399184]
 [ 0.24141026]
 [ 0.13229768]
 [ 0.20589858]
 [-0.20369716]
 [-0.10209108]
 [-0.18212701]
 [-0.2253065 ]
 [ 0.09987804]
 [-0.06484795]
 [ 0.11532111]
 [-0.18188533]
 [ 0.17312242]
 [ 0.10545371]
 [-0.21755387]
 [ 0.14464532]
 [ 0.18764575]
 [-0.09511684]
 [-0.19655655]
 [ 0.05797795]
 [ 0.0064489 ]
 [ 0.1884959 ]
 [ 0.07300585]
 [-0.04050621]
 [-0.08851715]
 [-0.17173102]
 [-0.1581906 ]
 [ 0.18084972]
 [-0.12254094]
 [-0.19956216]
 [-0.04753425]
 [-0.16430612]
 [ 0.13193442]
 [-0.21775804]
 [-0.2065698 ]
 [ 0.15117677]
 [ 0.08868229]
 [ 0.20848995]
 [-0.13007164]
 [ 0.24143672]
 [-0.09263653]
 [ 0.18853705]
 [ 0.10682563]
 [-0.10142666]
 [ 0.13165888]
 [ 0.10582051]
 [-0.16259944]
 [-0.2144539 ]
 [-0.2234248 ]
 [-0.10109182]
 [-0.12969425]
 [ 0.19246536]
 [-0.05364244]
 [ 0.22006398]
 [ 0.19793795]
 [-0.21523073]
 [-0.24459979]
 [-0.08356029]
 [ 0.08740792]
 [-0.08087329]
 [-0.10969625]
 [ 0.18351379]]
dense_6/bias:0
(1,)
[0.07908484]
