baseline/conv2d/kernel:0
(5, 5, 3, 6)
[[[[ 2.42944937e-02  8.93276855e-02 -3.06863561e-02 -6.99653476e-02
     3.49559098e-01 -2.50342309e-01]
   [-6.43566027e-02  4.62079532e-02  2.60409638e-02  1.38916612e-01
     7.42080137e-02  7.04752728e-02]
   [ 1.67069390e-01  2.25493699e-01  7.75830746e-02 -1.96943134e-02
    -1.54613554e-01  3.67651105e-01]]

  [[ 3.84321697e-02  1.18732966e-01  2.22887588e-03  2.57915966e-02
     3.17099810e-01  3.17017585e-02]
   [ 3.67422998e-02  6.54251501e-02  1.50001615e-01 -8.17185547e-03
    -8.80835056e-02 -1.16450801e-01]
   [-6.28692657e-02  1.78401917e-02  2.51627266e-01 -6.66102841e-02
    -1.71575621e-01  2.27766380e-01]]

  [[-1.46600097e-01 -1.08757116e-01 -1.17143705e-01  2.73732860e-02
     2.47592732e-01  4.03496884e-02]
   [ 8.13698918e-02 -3.37853581e-02  5.70317544e-02 -1.32130176e-01
    -1.09182402e-01 -1.32025942e-01]
   [-1.25799447e-01 -7.38570020e-02  1.79992914e-01  1.38017297e-01
    -1.11692078e-01  9.60656181e-02]]

  [[ 3.79621424e-02 -6.78729545e-03 -8.07762295e-02 -3.89102697e-02
     1.98669046e-01  7.96011761e-02]
   [-1.17603332e-01  4.24572304e-02  2.34126776e-01 -1.35362446e-01
    -6.06500879e-02  1.10039087e-02]
   [ 6.18653037e-02 -1.76896289e-01  1.85265645e-01 -5.59758730e-02
    -2.94326935e-02 -1.26182005e-01]]

  [[ 1.72286527e-04 -4.07941937e-02 -1.61786582e-02  1.72426730e-01
     2.97075063e-02  2.30192304e-01]
   [-8.60528946e-02 -2.12745368e-01 -1.40346676e-01  5.01950309e-02
    -1.53687477e-01 -1.68586865e-01]
   [-1.11557012e-02 -3.25096324e-02  1.41835764e-01 -5.19266874e-02
     1.13143355e-01 -2.43060291e-01]]]


 [[[ 9.02224705e-02  6.71120733e-02 -1.73303902e-01 -2.82845851e-02
     1.14242755e-01 -3.23488235e-01]
   [ 8.11666343e-03  1.08690254e-01 -5.55041097e-02 -4.12450656e-02
    -1.26878619e-01  8.85346606e-02]
   [-2.19666868e-01  2.26418912e-01  2.01033577e-02 -2.94455560e-03
    -4.54413667e-02  2.16087252e-01]]

  [[-1.99574932e-01 -1.97733045e-02 -1.70752019e-01 -4.46263887e-03
    -4.91547026e-02 -1.15051977e-01]
   [-1.03622675e-01  8.68578553e-02 -3.95679586e-02  9.70308855e-02
    -2.28449300e-01  1.66156635e-01]
   [-2.78294086e-01  1.37817532e-01  1.88928153e-02  4.69327793e-02
    -3.93037908e-02  8.59861150e-02]]

  [[-5.57627790e-02  6.92500100e-02 -9.05304775e-02 -9.19542462e-02
    -1.43131502e-02 -2.20849272e-03]
   [-1.51878655e-01 -9.59786177e-02  4.48349714e-02 -8.81997868e-02
    -6.78520650e-02 -4.33428353e-03]
   [-8.80942568e-02 -4.69999984e-02 -9.83565897e-02  1.57836735e-01
     1.79033144e-03  9.15771499e-02]]

  [[ 1.16748579e-01 -3.16806999e-03 -2.54663795e-01  7.10149556e-02
    -1.60069987e-01  4.60253768e-02]
   [ 2.07540229e-01 -2.16100916e-01 -1.87224448e-01 -1.83141559e-01
    -1.84655905e-01 -3.95461060e-02]
   [ 3.67024988e-02 -1.24338463e-01  1.24913923e-01 -1.32482275e-01
    -1.73913330e-01  5.00003919e-02]]

  [[ 1.79812670e-01 -5.85577525e-02 -2.11438295e-02  4.93749455e-02
     1.31322362e-03  2.52897859e-01]
   [ 2.66768903e-01 -1.31202400e-01 -6.07691966e-02 -8.23593419e-03
    -1.01040147e-01 -2.22872403e-02]
   [ 1.94885164e-01 -4.68671359e-02 -8.74549523e-02  1.13772355e-01
    -1.20723978e-01 -2.01235950e-01]]]


 [[[-2.50982940e-01  2.80953199e-02 -4.13877442e-02 -2.11468235e-01
    -1.15704231e-01 -7.09417686e-02]
   [-1.37705013e-01  3.03696748e-03 -7.65442848e-02  1.50590047e-01
     2.59375751e-01  4.55294363e-02]
   [-2.78767318e-01  4.13168997e-01 -1.18695386e-01  1.51172085e-02
     5.34013622e-02  2.41799504e-02]]

  [[-1.20918885e-01  3.79355624e-02 -1.61477372e-01  1.51564300e-01
     8.82817358e-02 -2.82044020e-02]
   [ 6.05258606e-02  1.69910535e-01 -9.93483514e-02  8.68298039e-02
    -9.95949432e-02 -8.42196792e-02]
   [-3.77508672e-03  8.95092636e-02 -2.20753979e-02  7.70419464e-02
     5.07109836e-02  1.08195893e-01]]

  [[ 1.56851292e-01 -1.22917611e-02  6.33074529e-03  5.93940821e-03
    -1.42919168e-01 -5.39287962e-02]
   [ 4.22484726e-02 -3.07224113e-02 -1.41898274e-01 -1.18885189e-01
     2.20937375e-02  1.92958862e-02]
   [ 1.02016561e-01 -6.96763536e-03 -2.24583536e-01 -8.42371210e-02
    -7.87145495e-02  5.36343493e-02]]

  [[ 1.07863724e-01  6.65885583e-02  3.45201641e-02 -5.72343655e-02
    -1.08874552e-01  1.23167828e-01]
   [ 9.43609476e-02 -7.20673501e-02 -4.33764644e-02 -2.37802997e-01
     1.06062546e-01  9.22352821e-02]
   [ 7.20257238e-02 -2.22386271e-01 -1.71039894e-01 -1.53690815e-01
     8.36930349e-02 -9.12891030e-02]]

  [[-2.21438129e-02  6.27429262e-02  3.18542831e-02  2.04014808e-01
    -1.10939905e-01  1.19867153e-01]
   [-6.63914457e-02 -2.25793764e-01 -8.68679658e-02  1.93938941e-01
    -3.02567873e-02 -1.15963697e-01]
   [ 1.05613276e-01 -2.08145648e-01  6.69779480e-02  3.91949527e-02
     1.29339591e-01 -3.37700471e-02]]]


 [[[ 1.16098538e-01  1.48774967e-01  3.34786534e-01 -1.49294019e-01
    -1.36795878e-01 -3.43927704e-02]
   [-1.04091659e-01  6.74617738e-02  9.49916802e-03  6.01624288e-02
     4.06757519e-02 -3.59019660e-03]
   [ 1.91176683e-01  1.55307844e-01 -8.98194760e-02 -1.15748242e-01
    -1.06422836e-02 -1.06423356e-01]]

  [[ 1.40973076e-01 -2.26750616e-02  2.11068287e-01 -1.06197121e-02
    -1.31318584e-01 -1.82500929e-01]
   [ 9.94954109e-02  1.20550722e-01  1.01008274e-01  2.37364650e-01
    -1.81693017e-01  3.47433724e-02]
   [ 1.82186246e-01  1.74684510e-01  9.29440856e-02  1.48380324e-01
     1.29406139e-01  6.02129512e-02]]

  [[ 1.15712702e-01 -1.11106768e-01  1.60888180e-01 -5.57421930e-02
    -1.41106740e-01  8.43259394e-02]
   [ 6.54885396e-02 -1.36836423e-02  9.39218029e-02  8.74053761e-02
    -1.05857812e-01 -3.47185433e-02]
   [-1.57732442e-02  1.06544532e-01  1.12877101e-01 -4.18358296e-03
     1.64829809e-02 -3.51685062e-02]]

  [[-9.09438878e-02  1.22545916e-03  2.47848377e-01 -1.31156459e-01
    -1.50012165e-01  2.51210690e-01]
   [-1.93589404e-01 -1.62735462e-01  6.30025147e-03 -2.30918229e-01
    -1.93251908e-01 -9.37958881e-02]
   [-1.65304899e-01 -5.12949377e-02 -8.98594484e-02 -1.68948039e-01
     3.09135448e-02 -1.36426777e-01]]

  [[-1.29836664e-01 -2.91596353e-02 -6.93480968e-02  1.93591878e-01
    -1.34981930e-01  1.88887492e-01]
   [-1.65117741e-01 -1.17696561e-01  4.09762524e-02  2.21762002e-01
    -1.51421741e-01  5.53762279e-02]
   [-9.21617076e-02 -1.25413135e-01  3.95525880e-02 -5.10004815e-03
     8.49338770e-02  1.56876650e-02]]]


 [[[ 1.34365067e-01  1.49725407e-01  6.35800958e-02  8.56315941e-02
    -1.72319561e-01 -1.78287536e-01]
   [ 1.13442518e-01  9.39629301e-02  1.34591470e-02  8.23185686e-03
    -2.02350039e-02  5.21692559e-02]
   [ 4.32500914e-02  3.42040509e-02 -1.32296547e-01  9.35182869e-02
     2.99719870e-01  1.70564190e-01]]

  [[ 3.59026939e-02  2.54066531e-02  6.23815507e-02 -1.06136724e-01
    -1.81851119e-01 -1.04887001e-01]
   [ 5.82350083e-02 -1.61879603e-02 -1.81634158e-01 -1.86035082e-01
     1.19170241e-01 -1.09941727e-02]
   [ 5.40199019e-02  2.74582691e-02  9.43388864e-02  9.94302891e-03
     2.77928356e-02  1.17843695e-01]]

  [[ 6.67617470e-03 -2.13851444e-02  3.79018253e-03  4.62920703e-02
    -7.91791603e-02 -1.44982636e-01]
   [ 3.00916042e-02 -1.00048475e-01  7.92843103e-02  1.05848432e-01
    -4.32045013e-02 -9.35939178e-02]
   [ 1.98847167e-02 -4.58191670e-02 -1.21387504e-01  4.73146550e-02
     6.02697022e-02 -4.97797644e-03]]

  [[-1.73450425e-01 -2.77226884e-02 -9.85658392e-02 -2.05228433e-01
     7.14074215e-03 -2.49949265e-02]
   [-7.66478181e-02  1.10552767e-02 -1.58159584e-02 -2.30228260e-01
    -1.23657115e-01 -1.47040486e-01]
   [-4.22160067e-02  3.22953872e-02  8.04207996e-02 -8.93393680e-02
     1.69626996e-01  9.39591154e-02]]

  [[-9.85113680e-02  1.26392096e-01  3.66560183e-02  1.41720071e-01
     1.38166308e-01  8.25440437e-02]
   [-1.63591444e-01 -2.56543189e-01  1.30906329e-02  1.26758620e-01
     5.85356867e-03 -1.55056968e-01]
   [ 9.31893662e-02 -2.16687337e-01 -1.26696331e-02  9.64969695e-02
     1.94669202e-01  1.05356120e-01]]]]
baseline/conv2d/bias:0
(6,)
[-0.01386546  0.1452193  -0.08473316 -0.09062902 -0.03418082 -0.0741732 ]
baseline/batch_normalization/gamma:0
(6,)
[0.7456508  0.82002616 0.8937903  1.0249829  0.71696275 0.73593503]
baseline/batch_normalization/beta:0
(6,)
[-0.29819098 -0.21817854 -0.4412719  -0.27989182 -0.2986505  -0.26076475]
baseline/dense_1/kernel:0
(1536, 128)
[[-2.91551929e-02 -5.79640130e-03 -1.37392264e-02  5.09776734e-02
   1.46585144e-02  1.85465161e-02 -9.18380991e-02 -3.50848734e-02
   1.25163093e-01  3.59631479e-02  1.56295802e-02 -6.91744164e-02
   3.54241915e-02  9.48238652e-03 -8.42498802e-03  1.24490686e-01
   7.26624858e-03 -3.08110230e-02 -1.48561914e-02 -4.06377278e-02
   5.42676862e-05 -7.87765607e-02 -6.73662648e-02  6.39067590e-03
  -3.76741029e-02 -2.93560922e-02 -8.71247333e-03  4.89674844e-02
  -1.28382193e-02  4.70193736e-02 -4.86172326e-02 -3.12652066e-02
   9.55793948e-04  3.69319282e-02 -6.97317347e-02  8.43134429e-03
   4.71574776e-02  3.31408903e-02  1.29943565e-02 -6.29622564e-02
  -2.50967406e-02  1.45725198e-02 -4.06009071e-02 -3.56701529e-03
  -5.47410436e-02 -4.39112410e-02  5.02056107e-02  6.25367165e-02
  -1.22391218e-02 -2.92342175e-02  5.67121431e-02 -7.37959798e-03
  -4.99927849e-02  1.63757000e-02  9.71449837e-02  1.21903457e-01
  -7.83177093e-03  7.58257210e-02 -5.19036688e-02 -3.07100993e-02
   6.30897358e-02 -6.39910400e-02 -1.61416736e-02 -1.77660082e-02
  -3.86825353e-02 -1.01506822e-02 -6.56667305e-03 -6.90895617e-02
   4.75564450e-02  2.67167166e-02  2.74266060e-02  1.96410827e-02
  -5.91723528e-03 -2.67409272e-02  7.63760880e-02 -1.20552210e-02
   2.21365448e-02 -5.59131280e-02 -2.08292417e-02 -2.74084248e-02
  -2.25966275e-02 -3.17825354e-03  1.18654389e-02  8.07227741e-04
  -6.73286542e-02  5.09651192e-02 -4.99407500e-02  8.20663497e-02
   3.39668207e-02  1.13850962e-02 -2.81118210e-02  6.14005178e-02
  -4.38836478e-02 -6.20263666e-02  3.21397558e-02  1.44256443e-01
   1.17235836e-02 -3.34254093e-02 -6.50952756e-02  1.55337565e-02
   4.09425944e-02  1.46296695e-01  3.10114268e-02 -4.64091776e-03
  -1.26335938e-02  4.53550629e-02  2.46751308e-02 -5.14386334e-02
   3.05433217e-02  5.64864874e-02 -3.47018316e-02 -5.20967394e-02
  -2.70005316e-02  3.39222215e-02 -4.90515307e-02 -4.54334170e-03
  -2.36261892e-03 -7.40578622e-02  3.90649922e-02  2.08140421e-03
  -7.71558806e-02  3.91355418e-02 -7.57607026e-03 -1.11323232e-02
   2.96042934e-02  9.99859627e-03 -5.47133796e-02 -1.86573260e-03]
 [ 1.32673485e-02 -4.16448675e-02  4.61570434e-02 -1.45883234e-02
  -6.17137626e-02 -1.11342534e-01  4.13993448e-02 -3.04222126e-02
   1.80287361e-02 -1.86188780e-02 -4.34660837e-02  4.26859818e-02
   3.30758430e-02 -5.50396480e-02  5.29115126e-02 -1.67023838e-01
   3.67266568e-03  2.16459855e-02  1.07485503e-02  1.45812705e-01
  -1.37459009e-03  3.59008573e-02  4.47072946e-02 -4.37495150e-02
   5.77571951e-02  4.76453360e-03 -5.61112501e-02  4.67109084e-02
  -3.19706127e-02 -8.23878646e-02  4.26781625e-02  1.01022217e-02
   2.87202783e-02  2.91947857e-03  4.14923318e-02 -5.17954454e-02
  -2.36435365e-02 -2.61358946e-04  1.64209649e-01  5.14322743e-02
   5.72248958e-02 -7.71108270e-03 -4.40458721e-03 -2.27619410e-02
   4.95657288e-02 -3.71908657e-02 -4.64369096e-02  8.78904536e-02
   5.31098433e-02 -1.13240719e-01  4.65777926e-02  1.12484924e-01
   4.87435274e-02 -5.69684282e-02  4.94841486e-02  8.89347196e-02
   9.39877797e-03 -2.16467818e-03  5.73283015e-03 -2.78717782e-02
   7.21767321e-02  1.11895157e-02  1.16149545e-01  3.21147367e-02
  -7.09503740e-02  2.30229758e-02 -6.41433448e-02  4.28601131e-02
   5.74211916e-03 -8.40302035e-02  4.29449342e-02 -4.94285785e-02
  -6.93426095e-03 -3.81398723e-02 -8.77195895e-02 -4.96876501e-02
  -8.29759985e-03  2.81914752e-02 -1.48522444e-02 -9.95289162e-03
   8.13516881e-03  5.41181397e-03  2.79013216e-02 -2.45729592e-02
  -2.65439376e-02 -1.44210786e-01  5.11155874e-02  2.06549857e-02
   2.57461960e-03 -4.12142202e-02  6.23049727e-03 -3.03446152e-03
   9.50863585e-03  5.47001744e-03  5.40232845e-02 -3.80723812e-02
  -6.71708360e-02  6.31056949e-02 -8.73443205e-03 -5.86856306e-02
  -9.86107662e-02 -1.31219551e-01  1.65749472e-02  4.80101071e-03
   6.28813133e-02 -5.36085665e-03  1.30713150e-01 -1.27805516e-01
  -5.62293269e-02  1.08132854e-01  2.48605516e-02 -1.76672377e-02
   1.70811862e-01  2.15948117e-03  6.34700153e-03 -6.89092651e-03
  -1.43308058e-01  2.54403688e-02 -3.39557640e-02  8.66441894e-03
  -1.95387438e-01 -2.78774975e-03  5.19084698e-03 -4.45810109e-02
   3.16074602e-02 -7.33140707e-02 -3.41195650e-02 -4.76666214e-03]
 [ 2.76747327e-02  6.77389139e-03 -6.70818537e-02 -2.75251102e-02
  -1.60250943e-02  1.08958900e-01 -4.01159190e-02 -3.56093794e-02
   2.48025842e-02  3.87889221e-02  3.84702757e-02 -5.83982794e-03
  -4.79058996e-02 -2.81442963e-02 -5.40596247e-02  3.40146832e-02
  -1.06248725e-02  6.26373803e-03 -9.19248909e-02  9.75099578e-02
  -5.39893843e-02  5.54530434e-02 -7.27481991e-02 -4.53695189e-03
   1.04763382e-03 -3.98715064e-02 -5.96021861e-02  1.63862929e-02
  -6.96947351e-02 -7.78834447e-02 -3.95657644e-02 -6.28126860e-02
   3.02792527e-02 -3.92806679e-02  5.66254230e-03  4.70957123e-02
  -1.26662431e-03 -4.17241827e-02 -7.55833164e-02 -3.05164568e-02
  -4.92070951e-02 -5.20789586e-02 -3.43742594e-02 -4.16183956e-02
   4.88951132e-02 -2.14201603e-02 -4.34044264e-02  1.26710340e-01
  -6.12625591e-02  9.76359919e-02  8.34412053e-02 -9.37649515e-03
   4.84026223e-02 -1.60684869e-01  6.86019063e-02  3.69730555e-02
  -1.49623416e-02 -7.40096569e-02 -4.49349359e-03 -1.03606410e-01
   6.11754954e-02 -2.77501363e-02 -4.05180976e-02 -3.25207040e-02
  -1.11613665e-02 -3.88606973e-02 -6.85120225e-02 -7.48825669e-02
   1.51582668e-02  4.79130596e-02 -3.70446010e-03 -6.93359226e-02
   7.74943233e-02 -4.13891636e-02 -4.46786322e-02 -1.39628742e-02
  -2.34754197e-02 -4.59259842e-03 -1.38953896e-02 -2.64332201e-02
  -4.76805083e-02 -8.85629356e-02 -5.40847853e-02  2.61850804e-02
  -4.59054708e-02  4.73807659e-03 -4.86145243e-02 -3.55178341e-02
   8.00570101e-03 -2.88836733e-02  3.63971032e-02 -1.23290516e-01
   9.48393438e-03 -4.55023833e-02 -3.29168811e-02  4.71156575e-02
  -3.17600992e-04 -5.24159847e-03 -6.21365234e-02 -4.18803748e-03
   2.66860705e-02 -1.70546267e-02  3.60399894e-02 -2.19911858e-02
   2.33667307e-02  9.46765859e-03  4.21294570e-02 -4.23871391e-02
   6.16942793e-02  7.85209388e-02 -6.24743011e-03  9.70251951e-03
   2.53312150e-03 -3.88844423e-02  4.13799807e-02 -2.48555653e-02
  -9.30566192e-02 -4.16588299e-02 -2.49839406e-02 -7.31692882e-03
  -3.20897736e-02  4.54960465e-02 -1.97616499e-02 -2.45851465e-02
  -2.18959935e-02  2.67444691e-03  5.16664656e-03  4.75746430e-02]
 [-3.18513662e-02 -9.37714204e-02 -5.08022234e-02 -5.54400571e-02
  -1.63874999e-02  1.02371983e-01  3.05954907e-02  5.25908172e-03
  -9.40730572e-02 -1.90500915e-02 -2.51551270e-02 -1.00631282e-01
  -1.47869727e-02  9.72359162e-03 -6.65923487e-03  1.19695896e-02
  -5.51936515e-02 -4.82068844e-02 -3.41175459e-02  4.03723534e-04
  -7.15574110e-03 -1.63948983e-02 -2.22467091e-02 -4.63841530e-03
   6.39424426e-03 -5.09566404e-02 -5.24037182e-02  6.57775346e-03
   1.55354599e-02 -9.39468574e-03  4.33381321e-03 -2.26628911e-02
  -1.44198434e-02  3.25161964e-02 -1.01068318e-01 -3.47368903e-02
  -6.87376410e-02 -5.51622808e-02 -2.25664899e-02 -3.52221429e-02
   5.48678078e-02  2.88435146e-02  5.38646765e-02  9.66812763e-03
   3.40905264e-02 -4.27928306e-02  3.40014999e-03  3.89914811e-02
   2.26121978e-03 -1.64551586e-01 -2.62499414e-02  1.98663231e-02
   4.28794362e-02 -7.94421136e-03  9.79257002e-02  8.29997212e-02
  -4.36283834e-02 -7.87863955e-02 -6.42551780e-02  2.63770223e-02
  -1.30148441e-01 -5.86118735e-02  1.41418085e-01 -8.21121037e-02
  -6.81390092e-02  3.23443934e-02  4.91582416e-03 -3.47170159e-02
  -6.27226904e-02 -6.84988499e-02 -4.90394700e-03  2.57061422e-02
  -2.75415350e-02 -3.22163589e-02 -3.45624760e-02  2.18717791e-02
   3.19767417e-03  3.42245251e-02 -2.93783029e-03 -4.36104164e-02
  -1.17053813e-03  9.99806747e-02  6.78202556e-03  4.57837582e-02
   4.13856097e-03  1.07811885e-02 -1.25440098e-02  5.16916104e-02
   3.78727056e-02  7.15442672e-02 -4.48778830e-02  8.77499767e-03
  -7.64752924e-02  1.12953279e-02  4.69520651e-02  6.69902191e-02
  -5.09657748e-02 -3.25951800e-02  2.65578050e-02 -1.51853729e-02
  -6.74167350e-02 -1.46946469e-02  1.33277522e-02 -4.43658046e-02
   2.99628787e-02  3.62789966e-02  2.63559055e-02  1.22218862e-01
  -1.03486702e-01 -6.08893558e-02  4.37757634e-02 -7.03749135e-02
  -6.10143803e-02 -1.04085319e-01 -2.81228572e-02 -5.17840795e-02
   3.16838957e-02  2.08630413e-02 -1.31675415e-02  1.29743330e-02
  -4.80090864e-02  6.54511824e-02 -3.76703888e-02  7.49497190e-02
   1.38644278e-02 -5.45144565e-02 -2.79255565e-02  2.60964278e-02]
 [ 1.47604998e-02 -2.00023279e-02 -7.94237293e-03 -7.32973814e-02
   4.32851501e-02 -2.98948158e-02  6.90358207e-02 -3.87417227e-02
  -4.61185537e-03  2.96398811e-02  3.39292921e-02 -2.28697285e-02
   1.63772348e-02 -4.41634990e-02 -1.52986413e-02  1.00189961e-01
   8.42634961e-03  4.49055694e-02 -7.84754530e-02 -7.95404613e-02
  -4.78832982e-02 -2.90794186e-02  5.04326308e-03  1.29270414e-03
   4.16431539e-02 -9.07079130e-02 -2.03400347e-02 -5.85394390e-02
  -2.17272267e-02 -9.03049856e-02  9.57118869e-02  3.91403353e-03
  -1.11122075e-02 -1.07686482e-02  5.27382866e-02 -8.18597898e-02
   2.45874957e-03 -6.89162090e-02  6.87650293e-02  3.87960821e-02
  -2.98146252e-02 -5.94308823e-02 -1.40034631e-02 -5.78563176e-02
   1.13653310e-03 -6.04485348e-02  4.44678739e-02 -8.77805874e-02
  -5.86441346e-02  2.23100595e-02  9.18672159e-02 -4.45879400e-02
  -4.59231213e-02 -4.38446999e-02 -1.36485538e-02 -6.06087483e-02
  -7.35279992e-02 -5.56540117e-02  1.85752884e-02  5.37263043e-02
  -3.58326994e-02 -1.16839893e-01  6.91682175e-02 -9.15939063e-02
  -1.29050696e-02  3.14424708e-02  5.95335178e-02  8.42624810e-03
   4.82123345e-02 -7.02016577e-02  3.99358151e-03 -3.22013013e-02
   8.29653218e-02 -6.37678802e-03  7.38512278e-02 -3.00527886e-02
   3.73149030e-02  2.59803864e-03  7.93493725e-03 -5.32774925e-02
   2.63882950e-02 -7.65824690e-03  4.96685281e-02  2.94909682e-02
  -1.57823302e-02  1.33677453e-01 -6.46753088e-02 -2.77260952e-02
  -4.91470844e-02 -8.23517814e-02  3.29576693e-02  5.72698005e-02
   1.29642664e-02 -6.39227256e-02  4.15999144e-02 -5.82074560e-02
  -1.63304862e-02  4.57551554e-02 -9.49040335e-03 -5.11101931e-02
   2.92376727e-02  2.50856020e-02 -3.83713013e-05  2.06707958e-02
  -5.36058061e-02 -6.18534908e-02 -4.56969254e-02  4.57579568e-02
  -1.87311005e-02 -6.08586036e-02 -2.23882892e-03  2.84604933e-02
  -8.65605474e-02  6.07982203e-02 -2.09118631e-02  1.33994408e-02
   8.61914381e-02  1.56478640e-02  4.45981883e-02  3.49146244e-03
   1.48427621e-01  9.54019427e-02 -3.38815004e-02  7.43431300e-02
   3.00405212e-02 -7.39869848e-02  1.10542476e-02 -1.85577676e-03]
 [-3.00147850e-02 -4.00325283e-02 -1.28400903e-02 -8.83889850e-03
  -4.33238558e-02 -2.77902260e-02  1.47726675e-02 -1.00058019e-02
   7.49411481e-03  4.67103459e-02 -2.65613645e-02  3.59046794e-02
  -1.33433323e-02 -9.71630868e-03 -6.51698411e-02 -4.46763933e-02
  -3.13053019e-02  4.82205413e-02 -6.32748604e-02 -3.82466130e-02
  -5.61270416e-02  2.60027554e-02  5.18100969e-02 -2.88976878e-02
  -2.32809540e-02 -3.70760709e-02 -2.36761887e-02  9.36395600e-02
  -2.66384128e-02 -1.35004908e-01  9.33513232e-03 -7.17088804e-02
   4.64505106e-02  6.99848309e-02 -4.63084467e-02 -5.81132695e-02
  -6.08707331e-02 -2.99075842e-02 -1.25705466e-01 -3.08960173e-02
   6.13174168e-04  4.62562684e-03 -4.39126603e-02 -4.65194285e-02
  -4.83740754e-02  9.49395671e-02 -7.09975362e-02 -1.57388207e-02
  -6.88437968e-02 -1.50380693e-02 -8.33804011e-02  6.80277273e-02
  -7.92998634e-03 -1.36906644e-02  4.84174006e-02  1.08764820e-01
  -5.10447621e-02 -5.63024096e-02  2.86571942e-02 -1.89140439e-02
   5.73470220e-02 -2.40436383e-02 -1.05935670e-01 -1.39574543e-01
  -1.88566204e-02  3.59741040e-02 -4.26170044e-02  3.96752059e-02
  -4.80617732e-02  6.30945805e-03  5.10685667e-02  4.28011119e-02
   1.12979360e-01  1.83835719e-03  3.72926518e-02  4.47179526e-02
   3.85578126e-02 -3.03788166e-02  4.77464462e-04 -6.49047196e-02
   5.04743122e-02 -4.14012969e-02  2.13583559e-02  5.00719957e-02
   3.39622842e-04 -2.77807917e-02  2.34196186e-02 -1.22602299e-01
  -5.23574464e-03  1.96659490e-02  4.25861925e-02 -9.85134467e-02
   3.83315608e-02  3.81357707e-02 -2.42291968e-02  1.37219420e-02
   3.75664495e-02 -1.87961441e-02 -4.73300740e-02  4.19353358e-02
   1.54803991e-01 -6.24204539e-02 -4.48060557e-02 -5.20277098e-02
  -8.42980295e-03  3.16569861e-03 -1.05056457e-01 -3.91552150e-02
  -8.12016577e-02  9.23064351e-02 -3.05387061e-02 -9.87757836e-03
   8.61045867e-02  9.51495767e-02 -4.03593890e-02 -3.54949869e-02
  -6.43705204e-02  2.88264104e-03  2.16156733e-03  3.27180065e-02
  -2.66158640e-01 -1.68176562e-01 -3.63366604e-02 -1.42012000e-01
   1.34583386e-02  1.32085122e-02 -9.96628031e-03 -3.58451679e-02]
 [-5.64735122e-02 -5.20222336e-02 -2.78438330e-02 -5.90687208e-02
  -2.45261062e-02  1.12216771e-01 -4.28430624e-02 -4.87161092e-02
  -6.79700971e-02 -5.40232770e-02 -2.31013987e-02 -1.92136224e-02
  -5.41385636e-02  2.54908651e-02  2.02840120e-02  7.23193064e-02
  -2.47380491e-02 -5.72483763e-02 -7.14996308e-02  7.56613314e-02
  -3.92080620e-02 -3.01505011e-02 -2.48581730e-02 -1.54369799e-02
  -4.62182565e-03 -3.44212875e-02  1.11731999e-02  5.34792654e-02
  -4.99084778e-02  1.37257889e-01 -6.74595907e-02  1.02688009e-02
   1.60158556e-02 -7.36553073e-02 -4.57710028e-02  2.96721999e-02
   9.04240161e-02  2.70098373e-02 -5.10571525e-02  4.02268544e-02
  -5.13176732e-02  2.83782724e-02 -2.50302069e-02  1.09712072e-02
  -4.02932009e-03 -7.54225850e-02 -1.19298855e-02  4.37734351e-02
  -1.27955675e-02 -8.98303315e-02  4.38158624e-02  6.55556889e-03
  -5.49269021e-02 -8.72943997e-02  3.11795082e-02  1.19359411e-01
  -6.59332005e-03  8.72591287e-02 -7.41117001e-02 -6.42220825e-02
  -7.83051848e-02 -3.66168469e-02  9.26399603e-02 -4.92334785e-03
  -7.00743943e-02 -4.80082445e-02  9.01253372e-02 -5.83783239e-02
   3.93176638e-02 -4.41742316e-02 -1.24688055e-02  4.18699384e-02
  -9.96658579e-02 -6.66702762e-02  9.89570543e-02  2.33222228e-02
   4.75402027e-02 -2.06089839e-02 -1.25838248e-02 -3.11662629e-02
   2.09223349e-02  2.37284374e-04 -5.85416853e-02 -1.42208070e-01
  -2.89241527e-03  7.10729808e-02 -3.19907255e-02  5.26370965e-02
  -5.57590835e-02  1.28816664e-01 -2.51121633e-02 -1.27249509e-02
   3.44554707e-02  2.34312285e-02 -5.42528145e-02  5.42384088e-02
   1.62175465e-02 -5.93186989e-02  4.48525362e-02  1.64687857e-02
   2.29204129e-02  1.53013811e-01  3.94127518e-03 -5.01782075e-02
  -1.42152077e-02  8.03003926e-03  1.89680979e-01  4.99585867e-02
   7.03399777e-02 -4.45900224e-02 -1.21189728e-02  3.10867392e-02
  -2.35288069e-02 -1.88546851e-02  6.45298371e-03 -3.22520137e-02
   1.91507846e-01 -8.73592645e-02 -4.19787019e-02 -6.73576891e-02
   1.49271384e-01  1.65003151e-01 -5.15870862e-02  2.03113228e-01
   1.14923278e-02  7.98153318e-03  1.95507016e-02 -2.31205877e-02]
 [ 3.56043465e-02  4.28713337e-02  2.15096753e-02  6.30710367e-03
  -2.54715700e-02  5.67405410e-02 -5.58381667e-03 -1.83057766e-02
  -2.90710311e-02 -8.87922496e-02  1.49176382e-02  9.39857215e-03
   3.56399640e-02  3.74852568e-02 -2.38259546e-02 -4.99540679e-02
  -4.73715272e-03  7.58602284e-03 -1.31313086e-01  1.13806993e-01
   1.57857016e-02  4.95157093e-02 -2.17753462e-02  6.26402646e-02
  -2.97093093e-02 -2.76497789e-02  3.92302349e-02  2.78667621e-02
  -7.28934407e-02 -1.07802399e-01 -7.96571840e-04  1.58937101e-03
  -3.99410389e-02  2.82069501e-02 -4.99649644e-02 -2.42441054e-02
   5.40541997e-03  2.52537243e-02  1.36162713e-01 -2.99595110e-02
   1.68296508e-02  1.81263778e-02  2.59981863e-02 -1.58312526e-02
  -1.86562482e-02 -4.77370284e-02  7.56925670e-03 -2.00159289e-02
   2.76565198e-02  1.24274474e-02 -3.17793339e-02  4.44231890e-02
   2.98003163e-02  5.04329763e-02 -6.52912632e-02 -2.09069555e-03
  -1.00500239e-02  4.64353599e-02 -1.51567562e-02 -3.87730002e-02
   7.15444386e-02  1.18063271e-01  1.82613820e-01  1.19664460e-01
  -1.74781997e-02 -5.64505979e-02 -5.67082874e-02  4.23784107e-02
   1.05118016e-02 -1.15480855e-01 -1.74914543e-02 -4.87387516e-02
  -7.51359239e-02 -2.35647745e-02  3.83866355e-02 -6.81269318e-02
  -5.59767894e-02  5.06474525e-02  5.99941909e-02  1.82187855e-02
  -4.55780998e-02  9.49938595e-02  1.13115404e-02 -5.46003878e-02
  -2.37139575e-02 -1.89461842e-01 -9.13762581e-03 -3.31660919e-02
  -6.77293092e-02 -1.25144124e-02  4.56218347e-02 -7.00251833e-02
  -5.00405021e-02  3.01966835e-02  4.82451990e-02 -1.99348152e-01
  -4.18829769e-02  2.25109458e-02 -9.14023444e-03 -7.20640123e-02
   8.73703882e-02 -1.05191199e-02  5.18186651e-02  2.64479183e-02
  -3.27744745e-02 -3.71144190e-02  2.49306560e-01  1.34157375e-01
   3.11245117e-02  8.28978792e-02  1.20020965e-02 -6.30455986e-02
  -5.66627597e-03  3.81104313e-02 -3.31204943e-02  4.86866310e-02
  -1.07698534e-02 -7.33743086e-02 -7.49241114e-02  5.79047613e-02
   1.27072662e-01  8.66021141e-02  1.38550932e-02 -1.56912610e-01
  -5.47107495e-02 -7.16080144e-02  1.17798246e-01 -6.53643161e-02]
 [-4.88161929e-02 -2.30359007e-02  3.51691619e-02 -9.94985402e-02
   4.29874584e-02  8.67801439e-03 -1.94609016e-02 -1.24829840e-02
  -6.57618803e-04 -4.27395403e-02  1.67015800e-03 -8.13722610e-02
   8.19851179e-03 -9.66641903e-02 -2.64506210e-02  2.12171301e-02
  -1.45456251e-02 -3.57128642e-02  6.66390285e-02  7.77577236e-02
  -1.72478780e-02 -3.15207355e-02  8.70332867e-03  6.33346140e-02
  -2.14357232e-03 -7.47959688e-02 -3.44204791e-02 -1.82321176e-01
  -3.30863371e-02  7.40206093e-02  3.07410769e-02 -4.87020947e-02
   1.03518022e-02 -8.39023367e-02 -3.46650891e-02 -3.71603966e-02
   1.32854372e-01 -5.81585802e-02 -1.58887044e-01 -3.26561406e-02
  -9.10553411e-02 -3.14089097e-02  2.70686038e-02 -3.60234128e-03
  -1.44880749e-02 -3.74362618e-02 -5.43172704e-03  9.22230184e-02
  -1.20868653e-01 -1.45629987e-01 -2.95123607e-02 -6.74468651e-02
  -5.20916618e-02 -4.63979617e-02  1.15063854e-01 -1.36792928e-03
   4.81518917e-02 -2.18813252e-02  2.74681170e-02  4.33964953e-02
  -1.91090658e-01 -3.64513732e-02 -4.00602892e-02 -1.98681027e-01
  -4.07832488e-02 -4.97370623e-02  8.92232656e-02 -1.18667632e-02
  -2.94578206e-02  1.05605975e-01 -2.26704590e-02 -2.20459346e-02
   9.68917459e-02 -4.08907235e-02  5.32394415e-03  5.76970801e-02
  -2.51379572e-02 -2.93713566e-02 -7.19599724e-02  6.31222036e-03
  -3.14480104e-02 -6.28446937e-02 -5.25511764e-02  4.14623059e-02
  -8.15126598e-02  1.78288504e-01  1.01843849e-02  9.91713703e-02
   5.70895635e-02  8.17597881e-02 -7.81240314e-02 -2.09019016e-02
  -7.44189844e-02  3.05039641e-02 -3.18791494e-02  7.26615116e-02
  -5.18870801e-02  5.13580553e-02 -4.56128716e-02 -3.80794555e-02
   5.23185469e-02 -1.23221308e-01 -9.57767516e-02 -5.55675365e-02
   2.52698045e-02 -5.21690175e-02 -9.34132934e-02  5.49732335e-02
  -1.25437751e-01 -1.40624464e-01 -2.03256346e-02  2.73263361e-02
  -1.04293197e-01 -6.28046021e-02 -8.81951153e-02 -1.27513353e-02
   3.57674398e-02 -4.42196988e-02 -2.14506444e-02  2.77593173e-02
   1.21213295e-01  3.09351850e-02  6.36247545e-02  3.04387305e-02
  -5.00095263e-02 -3.66066024e-02 -1.57011878e-02  2.84188762e-02]
 [ 4.53396700e-02 -7.03951865e-02  5.16850762e-02 -1.94248371e-02
   2.21957304e-02  1.11257434e-01  3.08887344e-02  2.50129532e-02
  -2.16070041e-01  1.01987794e-02 -4.24910933e-02 -8.84510279e-02
   2.92936396e-02 -2.28093136e-02 -5.09881675e-02  1.30850226e-01
   9.38114151e-03 -4.95488942e-02  2.44081728e-02  5.45623377e-02
  -1.61334162e-03 -1.14316277e-01 -5.17558772e-03  2.11483776e-03
   6.17846139e-02 -6.79515451e-02 -2.56675184e-02 -9.16878060e-02
   2.67817136e-02 -4.13679844e-03  6.02441020e-02  3.01231276e-02
   2.69761513e-04 -1.81174591e-01 -4.56671864e-02 -4.52777464e-03
  -7.79701322e-02 -6.03970848e-02 -7.46778399e-02 -6.93130121e-02
   2.75907069e-02 -9.04521570e-02  4.95683923e-02  1.19253872e-02
   3.30568887e-02 -1.97277535e-02 -3.65884379e-02  5.96592352e-02
  -4.64171432e-02 -1.30978927e-01  4.37422171e-02 -5.31123355e-02
  -4.43841629e-02 -9.41435769e-02 -3.08085382e-02 -2.12070532e-02
   1.04538922e-03 -5.01052514e-02  1.70785151e-02 -8.28444026e-04
  -1.03333332e-01 -1.09563626e-01  3.90663631e-02 -2.02870443e-02
   2.99958475e-02  2.50952542e-02 -2.95341033e-02 -4.33206744e-02
   2.80811042e-02 -8.73525888e-02  5.20618968e-02  1.76055320e-02
  -8.35428238e-02 -3.72716896e-02  7.18025267e-02 -5.23135029e-02
  -2.04960145e-02 -2.87237279e-02 -3.17736119e-02 -3.52366529e-02
  -3.91954407e-02 -8.67480487e-02 -1.29318592e-04 -1.16716452e-01
  -5.59590533e-02 -1.07863620e-01 -3.47024500e-02 -1.03712939e-01
  -1.86495613e-02  5.39009497e-02 -6.14469126e-02 -7.02396259e-02
  -2.31296616e-03  7.19207292e-03 -4.19515558e-03 -1.83628201e-02
  -3.04945447e-02 -4.07977812e-02  3.12842689e-02 -1.94003340e-02
   1.44407526e-01  4.85919714e-02 -7.10418867e-03  3.19400541e-02
   2.81087812e-02 -4.07251855e-03  1.09819002e-01  7.37931579e-02
  -4.52137506e-03 -2.15846568e-01 -1.35831237e-02  1.94850080e-02
  -6.11930601e-02  5.22957630e-02 -6.53326735e-02 -1.74891744e-02
   9.33771059e-02 -3.85316052e-02 -1.81521308e-02  6.74934238e-02
   1.57251880e-01  1.02612823e-01 -7.91283548e-02  1.07041351e-01
  -3.26896496e-02  4.76173759e-02  7.28841778e-03 -2.56133843e-02]
 [ 2.92151724e-03 -9.61271897e-02  3.75038534e-02  4.37461101e-02
  -2.75427569e-03  5.21269888e-02 -5.71535341e-03 -5.92448302e-02
  -3.35211167e-03  3.01792715e-02 -6.66996911e-02  8.36686045e-02
  -2.94086952e-02  1.76824182e-02 -1.58268958e-03 -1.73259098e-02
  -3.51732783e-02 -8.58889986e-03 -1.94736067e-02  3.44749838e-02
   2.43972465e-02 -2.87535302e-02  1.98540352e-02 -6.47832751e-02
   3.77677818e-04  4.65814816e-03 -9.12863761e-04  9.27906763e-03
  -2.83633801e-03 -2.39001177e-02  9.46583301e-02 -6.81549758e-02
   3.75750544e-03  1.16240196e-02  3.83488759e-02 -3.12925279e-02
   1.05256028e-01  3.33635919e-02 -4.04075943e-02  1.97264347e-02
   6.12704754e-02 -8.21883678e-02 -2.02275217e-02 -5.03583513e-02
   3.48081365e-02 -7.30831474e-02 -6.24301396e-02 -4.78590429e-02
  -7.28866970e-03 -4.66728173e-02  6.99508488e-02 -8.24663714e-02
   3.58375013e-02 -9.31023993e-03  5.38962614e-03 -1.11398064e-01
  -7.10038468e-02 -5.59203401e-02 -5.64947240e-02  1.24152219e-02
   7.53646716e-02 -1.01628557e-01  1.44167338e-02  6.15899079e-02
  -5.55103794e-02 -1.81924130e-04  3.48915160e-02 -2.69764755e-02
  -2.07522940e-02 -5.89800850e-02 -1.87195726e-02 -3.78585048e-02
  -1.06275991e-01 -7.30688050e-02  7.67732933e-02 -7.20901266e-02
   1.09513728e-02  1.20327957e-02  3.50676067e-02  1.70180909e-02
  -4.74829599e-02 -3.14981379e-02  2.01854203e-02  4.15975563e-02
  -4.39375266e-02  8.11446682e-02 -4.44138795e-02 -2.93056089e-02
  -8.75511318e-02 -1.71982512e-01  3.39395516e-02  2.30824691e-03
  -3.30323204e-02  1.21121146e-02  1.12650879e-02 -6.43218607e-02
   2.33957991e-02  3.29718180e-02 -3.47153209e-02  9.84761585e-03
   2.67796684e-02  5.32959662e-02 -7.33546391e-02  4.83182892e-02
  -6.74464926e-02 -1.61086097e-02 -1.62817121e-01  6.92438185e-02
   4.38362285e-02 -1.36662409e-01 -4.43511037e-03  1.28409257e-02
   4.99948561e-02  1.13162887e-03  3.67506891e-02  4.94316295e-02
   1.07712829e-02 -1.61673769e-03  3.14523838e-02 -3.35326865e-02
   2.01593433e-02  5.18444777e-02 -3.11643984e-02  8.45062807e-02
   2.00987812e-02 -2.06621606e-02 -3.21781486e-02 -2.20613694e-03]
 [ 4.29585800e-02 -6.27777278e-02 -1.73298139e-02  1.67430807e-02
  -3.30166630e-02 -7.82603994e-02 -1.57820038e-03  6.15382046e-02
  -1.88109148e-02 -9.62884631e-03  1.06636174e-02 -2.79630963e-02
  -3.04692909e-02  1.02668488e-02  5.56243695e-02  2.29530230e-01
   2.02160589e-02  1.36268567e-02 -6.06559590e-03 -2.20393434e-01
   3.79103720e-02  5.49351722e-02  2.96172984e-02  4.51840684e-02
   5.28596458e-04  2.48993114e-02 -4.57414575e-02 -1.99622959e-02
  -3.99753228e-02 -4.39925790e-02  1.53664485e-01 -3.34073566e-02
   6.98964670e-02  3.20405141e-02 -8.72998592e-03  3.10610607e-02
  -8.97165090e-02 -7.17858300e-02  1.24388158e-01  2.31813397e-02
  -1.02395453e-01 -4.45160419e-02  2.49723531e-03  6.26320466e-02
   5.13231847e-03 -7.39234835e-02  4.18510940e-03 -2.46376500e-01
  -6.07462041e-03  2.57783607e-02  9.08467621e-02 -7.22286925e-02
  -2.25543827e-02  6.04185089e-02 -1.40885999e-02 -5.79586141e-02
  -1.71264671e-02  5.39674014e-02  5.75073063e-02  1.96045712e-02
  -1.23498011e-02  7.99884368e-03 -1.29604321e-02  4.35057990e-02
   1.33374464e-02 -5.44607304e-02  7.46379001e-03  4.25904766e-02
   4.00652960e-02 -1.17182888e-01 -1.17570423e-02 -4.13727872e-02
  -4.74567935e-02 -7.22914562e-02  9.50990543e-02 -5.10707090e-04
   1.49139867e-03 -3.85221690e-02 -2.85368878e-02 -1.75369140e-02
   2.45012064e-02 -9.32683200e-02 -4.74166609e-02  1.04872242e-01
   2.12153792e-02  9.19650644e-02  3.28284316e-02  6.25744015e-02
  -9.01476219e-02 -4.37923446e-02 -3.71824158e-03  5.41925058e-02
   2.92444285e-02  2.21147276e-02 -2.09541433e-02  2.27577221e-02
   4.37656827e-02 -3.89065407e-02  4.38900515e-02  5.29911136e-04
   7.16826832e-03 -7.64259472e-02  2.92905085e-02  8.15768912e-03
  -1.71809476e-02 -2.40988787e-02 -2.56682724e-01 -2.57659275e-02
  -2.72647906e-02 -1.56515539e-02  6.87982440e-02  2.23876610e-02
  -1.26276210e-01  9.77155119e-02  1.32258227e-02 -3.19202282e-02
  -6.02378398e-02 -5.39426878e-02 -3.40416133e-02 -1.98165216e-02
  -1.85348585e-01 -1.03686109e-01 -9.20806732e-03 -1.27039179e-01
  -6.01970740e-02  1.19837066e-02  5.50415739e-02 -3.36342901e-02]
 [-5.16890511e-02  5.03716394e-02 -4.25225496e-02 -5.53383604e-02
  -5.39544912e-04  4.05234694e-02 -1.78462844e-02  4.40449119e-02
  -1.39038846e-01 -2.11348254e-02  4.21780311e-02  1.30795706e-02
  -3.16286571e-02 -8.86387192e-03 -6.76756278e-02 -4.53970283e-02
  -6.40172064e-02 -7.12315515e-02  4.17898074e-02  2.50377581e-02
  -2.75326855e-02 -9.61735845e-03 -6.05815090e-02  1.06184231e-02
  -5.50482655e-03 -5.80625907e-02  1.85595779e-03 -1.70892123e-02
   3.53859626e-02 -3.61047732e-03  8.38844106e-02 -4.48148511e-02
   4.73483317e-02  1.09380223e-01  8.19854997e-03 -3.00937612e-02
  -1.79411367e-01 -1.86681952e-02  9.52829719e-02  3.53134982e-02
  -7.98012093e-02  1.22434301e-02 -1.58463456e-02  2.26567406e-02
  -1.10936658e-02 -2.91983429e-02 -3.87829505e-02  6.69823661e-02
  -9.16995332e-02 -6.79475889e-02  1.35296471e-02 -1.32110372e-01
   4.16267850e-02 -9.66843143e-02  3.09293531e-02 -3.00651435e-02
  -4.90329154e-02 -1.01165278e-02  2.26421133e-02  5.56140905e-04
  -5.19334488e-02 -3.48098986e-02 -6.59775734e-02  4.55648229e-02
  -1.70136206e-02  4.11303937e-02 -7.96981901e-02  1.67777203e-02
  -1.08883930e-02 -5.84703758e-02  2.29651742e-02  4.54546040e-04
  -2.88844723e-02 -3.30110895e-03  4.32549156e-02 -3.09982188e-02
  -6.50156811e-02  1.43168997e-02 -2.59845238e-02 -1.85948089e-02
  -1.32872546e-02  7.79465735e-02  1.91182569e-02 -5.22362739e-02
   2.30040913e-03  2.96555292e-02 -1.86144169e-02 -1.49552137e-01
  -5.14929965e-02  1.03094764e-02 -5.08146174e-02  3.29106557e-03
  -4.79107164e-02  4.64180633e-02  2.05545174e-03 -1.24137979e-02
  -1.79088768e-02 -4.79538441e-02 -5.80619723e-02  3.87771167e-02
  -2.35271733e-02  7.65675902e-02  3.07225622e-02  3.17622684e-02
   1.50984735e-03  9.65209398e-03  7.50663653e-02  3.84688042e-02
  -2.35786401e-02  3.69070540e-03  1.68480538e-02  4.79166992e-02
  -3.10381148e-02 -2.12498265e-03  1.88227203e-02 -1.38905076e-02
   3.30644101e-02 -4.66621779e-02  3.98485921e-02  2.33262647e-02
   4.50775996e-02 -6.25964850e-02 -2.31993012e-02  2.08828449e-01
  -5.12599163e-02 -6.22592643e-02  1.13426633e-02 -5.09439595e-02]
 [ 1.12961866e-02 -3.65116149e-02 -5.57881258e-02 -3.38549204e-02
   1.21404259e-02 -2.07138881e-02  5.04837334e-02  4.90601920e-02
  -2.02392295e-01 -2.95093209e-02 -1.90151669e-02 -1.39817044e-01
  -1.39539586e-02 -2.17357781e-02  1.93747655e-02 -1.86927602e-01
   1.75706372e-02  4.52233963e-02 -5.87098189e-02 -1.18331229e-02
  -4.15147133e-02 -2.47778688e-02  2.81067509e-02 -2.84345099e-03
   6.93833642e-03  2.63471454e-02  2.14085747e-02  2.99633015e-02
   5.22920415e-02 -6.59576207e-02  5.70399500e-03 -5.31156622e-02
  -8.68897438e-02  4.70263840e-05  1.38168689e-03 -6.12105280e-02
  -6.28214143e-03  1.77455619e-02 -2.91131828e-02  3.20582166e-02
  -1.89026129e-02 -6.49525411e-03 -3.55538242e-02  2.50910725e-02
  -3.34255323e-02  1.50633001e-04  2.05638185e-02 -1.09782718e-01
  -3.68186571e-02 -2.18555648e-02 -4.82035056e-02 -1.11146629e-01
   4.89780642e-02  1.31610006e-01 -1.07387245e-01 -7.16651157e-02
   4.04891372e-03 -5.03304340e-02  5.02947941e-02 -2.01269966e-02
  -1.79324597e-02  1.49292961e-01  7.43594021e-02 -1.43394982e-02
   5.90796303e-03 -5.92409968e-02 -7.87767917e-02  2.06016693e-02
   3.35588567e-02 -7.55468085e-02 -3.31169888e-02  3.82354297e-02
   2.80943587e-02  4.98342477e-02 -1.13428757e-01 -6.49935454e-02
   7.77711114e-03  2.22451668e-02 -5.25829159e-02 -3.99117395e-02
  -4.71645407e-02 -2.94138864e-03 -3.00887171e-02 -6.30317256e-02
  -1.17288530e-02 -7.20326900e-02 -3.06225866e-02  1.24815792e-01
   2.76137702e-02  1.98169500e-02 -1.92501415e-02 -1.84655696e-01
   4.67298320e-03  1.09119769e-02 -2.79102530e-02 -9.89023745e-02
   3.83832492e-02  3.95181924e-02 -3.65723521e-02 -1.32181710e-02
  -3.87568288e-02 -1.06088117e-01  6.35103807e-02  1.71316857e-03
  -7.49679953e-02 -3.83041799e-02  2.99403369e-01  8.64081979e-02
   1.50774270e-01  6.06134050e-02  7.70679116e-03 -5.82811749e-03
  -1.11752942e-01 -6.86689541e-02 -3.59234922e-02 -2.11094059e-02
   2.95058992e-02 -3.34681384e-02 -1.38342995e-02 -6.33524731e-02
   3.41013037e-02  4.20344137e-02 -3.33404131e-02  3.72158848e-02
   1.36199684e-04 -9.87522863e-03  7.14948475e-02 -3.60295549e-02]
 [-1.67285539e-02 -6.82480112e-02  2.99203489e-02  4.72479947e-02
  -6.52435049e-03  8.23872816e-03 -1.24563416e-02 -7.02633336e-02
  -7.65526667e-02 -1.22063756e-02 -6.34248406e-02  1.12493965e-03
   1.87453791e-03  2.43213563e-03  1.25850048e-02  4.96397987e-02
  -3.92058380e-02 -5.45141101e-02 -1.57185737e-02  2.39676721e-02
  -2.09850296e-02 -1.86900925e-02 -8.83800387e-02 -1.30476132e-02
   2.07842402e-02 -6.26771674e-02 -6.18300810e-02 -2.04284474e-01
  -4.88343611e-02 -7.53330812e-02  2.37743556e-02  1.74939111e-02
  -6.73233792e-02 -1.11361921e-01 -8.17210749e-02 -4.49357703e-02
   1.66020483e-01 -9.50218886e-02  3.16834971e-02 -9.42810029e-02
  -8.23130682e-02 -8.06334540e-02 -3.96448001e-02 -2.02468745e-02
  -4.66533452e-02  7.73308873e-02 -6.25425903e-03  5.95370606e-02
   6.71591796e-03 -9.72104296e-02  2.62925755e-02 -5.15823625e-02
  -4.22721691e-02 -4.30441462e-02 -1.38181997e-02 -5.36981113e-02
   1.55382110e-02 -5.20713590e-02 -1.71521381e-02 -7.56656975e-02
  -1.64238021e-01 -6.83596218e-03  1.90357827e-02 -1.03057444e-01
   2.01344330e-04  5.24577014e-02 -5.89159541e-02  5.36746606e-02
  -2.57449839e-02  1.72667190e-01  9.95650422e-03 -2.33118776e-02
   6.98752999e-02  3.09073180e-02  4.45602462e-02  1.97449420e-02
  -1.19215222e-02  4.76649329e-02 -5.54936975e-02 -7.68160224e-02
   2.20649410e-02  6.62869290e-02 -4.91244625e-03  5.73198684e-02
   6.73648855e-03  8.86197388e-02 -1.87197085e-02 -6.21331967e-02
   1.21505558e-01  1.46699503e-01  5.87633112e-03 -4.39376682e-02
  -6.19148836e-02  4.55782525e-02 -3.25168818e-02  5.64835668e-02
  -5.42005338e-02 -3.20943408e-02 -3.23962569e-02 -4.54486348e-02
  -1.03608385e-01 -1.21875713e-02 -4.83907238e-02 -1.03775889e-01
  -5.15720025e-02  4.11694497e-02 -5.18559366e-02  4.98180985e-02
  -1.50279686e-01 -5.16653992e-02 -1.14915951e-03  2.76562758e-02
  -1.59775913e-01 -8.89462158e-02 -2.13347357e-02 -6.33360520e-02
   1.01022638e-01  7.05041597e-03  8.12697560e-02  1.10213161e-01
   6.84533566e-02  3.04553136e-02 -5.96906468e-02  1.07303355e-02
  -5.32187782e-02 -8.07499662e-02 -8.18104949e-03  1.38690546e-02]
 [ 6.51726639e-03 -4.66417260e-02  2.98029836e-02  2.97295954e-02
   2.32616924e-02  3.50768343e-02 -7.78952092e-02 -1.67833995e-02
  -5.31964190e-02 -7.36397505e-02 -1.14984233e-02 -4.41683009e-02
  -1.33767026e-02 -6.65730834e-02  1.96829922e-02 -3.63007956e-03
   1.66632831e-02 -3.08576766e-02 -3.03953215e-02  1.14941649e-01
  -3.87353487e-02 -2.17068195e-03 -3.83501910e-02 -5.36408424e-02
   1.22648943e-02 -6.35264441e-02 -6.55145869e-02 -3.57062817e-02
   1.73789598e-02  6.39959872e-02  5.94075955e-02 -5.00818938e-02
  -7.04115862e-03 -1.01385221e-01 -1.18087819e-02 -1.64097510e-02
  -8.15542787e-02  2.52673007e-03 -1.07133768e-01  1.49055505e-02
   4.77217436e-02 -5.80010824e-02 -2.24217288e-02 -4.03582789e-02
  -4.04027887e-02 -6.53842688e-02  1.02553172e-02  7.38248229e-02
   2.06350572e-02 -1.28844827e-01 -1.82356760e-02  8.06219131e-02
   2.33820248e-02  3.53137916e-03  9.61824059e-02  5.63617200e-02
  -4.06526551e-02  3.71078737e-02  5.09943105e-02 -1.36868879e-02
  -7.57255852e-02 -1.04153843e-03  8.52888823e-02  1.83234073e-03
  -8.77453536e-02 -5.87782301e-02 -7.38052651e-02 -5.98781742e-02
  -5.45668602e-02 -9.28284898e-02  1.70165636e-02  2.10234020e-02
   3.20434384e-02  3.73695083e-02 -1.43221794e-02 -6.77151000e-03
  -5.36433570e-02  4.83025573e-02  1.55989239e-02 -4.47195619e-02
  -3.92644629e-02 -1.46970585e-01 -4.10577282e-02 -1.28603801e-01
  -4.30204906e-02 -2.81701353e-03 -4.71921861e-02 -3.23454803e-03
   1.20369659e-04  1.53088227e-01 -2.17506029e-02 -4.30377312e-02
   4.46971096e-02 -2.59740110e-02 -5.08238338e-02  1.02852136e-02
   7.36896414e-03 -6.40447438e-02 -6.75981641e-02 -5.34562692e-02
   1.01277709e-01 -6.73683807e-02 -4.21626940e-02 -3.74050578e-03
  -1.27161080e-02 -5.50254434e-03  9.12543088e-02  6.08463660e-02
   5.40603809e-02 -1.26686469e-01 -3.41731906e-02 -1.27670551e-02
  -5.61484285e-02 -7.19155651e-03 -4.82585058e-02 -2.40804292e-02
  -1.21887373e-02 -2.64594443e-02  3.70317213e-02 -3.03328633e-02
   1.87144518e-01  1.60652161e-01  1.12589048e-02  9.53280702e-02
   2.94214115e-02 -2.67895367e-02  2.57209525e-03 -4.61163558e-02]
 [-3.00490353e-02 -6.20406903e-02 -3.21525522e-02 -4.35362309e-02
  -4.48602848e-02  1.21171046e-02 -2.20643822e-02 -4.08714302e-02
   2.21779402e-02 -6.28582537e-02  2.13338882e-02  5.98400459e-02
  -6.37127310e-02 -4.46532965e-02  5.54474024e-03  4.05744798e-02
   1.89341679e-02  4.33247089e-02 -4.82497402e-02 -1.43749202e-02
   1.78345889e-02 -2.00811159e-02  1.21791614e-02 -5.62774129e-02
  -2.81560775e-02 -2.35149200e-04 -3.92698534e-02  4.39144708e-02
  -1.77730750e-02 -1.68386549e-02  3.85448476e-03 -9.14360117e-03
  -3.64997163e-02  4.44557294e-02 -2.23042872e-02  3.05264015e-02
   8.54008421e-02 -3.75765339e-02  9.48714241e-02 -5.29199466e-02
   2.78795697e-02 -6.46846220e-02 -6.75179660e-02  4.93668690e-02
  -1.91026535e-02  2.74724066e-02  4.26185951e-02  5.33815436e-02
   3.08268256e-02 -4.35317047e-02  1.06792867e-01 -1.00178709e-02
   1.33156665e-02 -5.49794286e-02 -6.44256845e-02 -1.58801284e-02
   4.89173504e-03  2.08850075e-02 -1.26631549e-02 -5.56627586e-02
   5.44909202e-02 -1.51373381e-02 -1.29164597e-02 -7.04323873e-02
   3.11735794e-02 -2.70749535e-03  3.13025452e-02 -4.41732258e-02
  -3.87451947e-02 -6.19512387e-02 -1.61969829e-02 -3.61355580e-02
   4.62556537e-03 -2.08765194e-02  3.51288058e-02  4.86389501e-03
   3.04634753e-03  2.20972975e-03  3.68662775e-02 -2.52662934e-02
  -6.09488040e-03 -5.66239208e-02 -5.11160307e-02 -6.00176444e-03
   8.34713457e-04  1.24095650e-02  2.94474885e-02 -4.05179113e-02
   1.22152958e-02 -1.94154710e-01  4.57423329e-02  1.36582538e-01
  -4.34529744e-02  2.25105584e-02  3.17340381e-02 -2.52526589e-02
  -5.91131374e-02  1.62586495e-02  4.32178900e-02  3.22500654e-02
   2.67571229e-02  5.79449087e-02  3.16539109e-02 -4.10195589e-02
  -4.85859104e-02  1.36640398e-02 -5.55564910e-02  1.46267675e-02
  -3.77243687e-03 -3.12841088e-02 -3.81255038e-02 -5.14469594e-02
  -3.24758259e-03  8.95341560e-02  3.49563956e-02 -3.85273993e-02
   6.35460839e-02 -3.43512930e-02 -7.83873349e-03 -1.93409529e-02
   9.94568840e-02  1.32737868e-02  4.46548089e-02  8.06876048e-02
  -4.15990166e-02 -1.06415562e-01  5.17717898e-02 -4.92665395e-02]
 [ 5.61780110e-02 -3.76043878e-02  5.32661863e-02  8.57156888e-03
   3.21783051e-02  6.04317300e-02 -6.37117550e-02  4.44515981e-02
  -8.58098045e-02 -3.11163422e-02 -2.24917047e-02  7.52626592e-03
  -7.10866228e-02  3.54698556e-03 -2.42746659e-02 -5.49406419e-03
  -4.64236028e-02  4.80386056e-02 -8.01983103e-02 -3.14145118e-01
  -6.11130930e-02 -4.93063964e-02 -4.48096208e-02  1.28554339e-02
   4.10776958e-02  3.43143344e-02 -4.58856858e-02 -1.23939969e-01
  -8.99420399e-03  1.00242710e-02  1.41317159e-01 -1.82286985e-02
  -8.02719072e-02  8.12949322e-04 -1.30783208e-02  1.46073177e-02
  -1.17619470e-01 -3.57370414e-02 -2.77444106e-02 -1.51218707e-02
  -1.24833612e-02 -4.85034585e-02 -3.97829432e-03  1.67760868e-02
  -4.24159644e-03 -1.87136438e-02  3.58503908e-02 -2.91768134e-01
  -3.98184806e-02 -1.33682266e-01  2.32271887e-02 -3.02946363e-02
   2.61597410e-02  8.62431973e-02 -2.58731712e-02 -3.01894033e-03
  -1.77314188e-02  2.25705816e-03  3.46533246e-02  1.61336828e-02
  -1.66212898e-02 -5.13254404e-02  1.70934445e-03  1.04081176e-01
  -1.48752434e-02 -4.16889787e-03 -7.41136866e-03 -3.62302437e-02
  -9.91798821e-04 -1.11039747e-02 -2.83367932e-02 -3.55441757e-02
  -2.89017241e-02  4.26831096e-02  2.31110558e-01 -1.55665632e-02
  -4.54034097e-02  5.06905317e-02  1.94149334e-02 -2.06549335e-02
   4.45324369e-02 -6.78016916e-02  2.95132045e-02  3.67614068e-02
  -4.43326076e-03  5.83325066e-02  5.35039343e-02 -8.55370909e-02
  -6.36248663e-02 -8.05670917e-02  3.27138901e-02 -1.14080571e-02
  -3.00880019e-02  3.23892455e-05  2.59354766e-02 -6.00116439e-02
  -4.69779968e-02  1.62393823e-02  3.78434360e-02 -2.57953312e-02
  -6.44062385e-02 -8.76657739e-02  3.87096889e-02 -5.98718710e-02
  -3.17424983e-02 -3.37337703e-02 -7.86600485e-02  1.06160179e-01
  -1.08467527e-01 -8.53778943e-02  5.19473627e-02 -5.91681078e-02
  -5.30081205e-02 -1.95336882e-02  1.85734536e-02 -9.47399810e-03
   5.93735166e-02  2.15633083e-02 -3.96898761e-02 -1.48316771e-01
   3.95923927e-02 -1.32012263e-01 -2.84132380e-02 -1.78016096e-01
  -5.39727658e-02 -6.61466345e-02  6.32544979e-03  3.44848223e-02]
 [-3.12065170e-03  6.21824875e-04 -4.44126986e-02  4.74287421e-02
  -2.89768656e-03 -4.25130269e-03 -4.98382747e-02  3.77661511e-02
  -3.64590138e-02 -4.03554402e-02  7.95960892e-03  1.64387655e-02
   4.63663600e-02 -4.44925018e-02 -4.36035022e-02 -7.43761510e-02
   5.29309399e-02  4.22742665e-02 -6.51610782e-03  1.04307048e-01
  -9.39675421e-02  1.46903777e-02 -3.86967771e-02 -3.02744955e-02
   3.23691890e-02  1.59330014e-02 -1.96947902e-02 -5.96723780e-02
  -3.52857746e-02 -7.16844648e-02  9.07962024e-02  2.65682042e-02
   4.04087193e-02 -8.08011089e-03 -8.60933797e-05  4.94308630e-03
  -7.67761702e-03 -1.56150828e-03  8.98245722e-02 -1.72744244e-02
  -1.50335506e-01 -3.47880870e-02 -7.24699209e-03  3.27471569e-02
  -3.12376823e-02 -6.22039102e-03  2.03945115e-02  6.99913651e-02
  -6.95557445e-02 -1.18451521e-01  5.82238138e-02 -1.00231923e-01
  -5.57315955e-03  1.78351812e-02  6.78605214e-02 -1.56695750e-02
  -4.72764000e-02  2.76309662e-02 -1.86223630e-02 -2.44851075e-02
  -2.97184214e-02 -6.64119199e-02 -7.71958157e-02 -2.57702619e-02
  -6.63131177e-02  1.54599166e-02 -1.06861897e-01  2.18741316e-02
  -5.94843701e-02 -5.17927967e-02 -4.74277288e-02 -3.68597992e-02
  -1.55769847e-02  4.70356047e-02 -6.87822979e-03  3.61271314e-02
  -4.95439805e-02 -3.24972384e-02 -3.53796445e-02 -6.48953617e-02
  -4.07376662e-02  1.64047424e-02  3.52256224e-02 -2.02785823e-02
   6.91283867e-02  7.91160762e-02  1.39409835e-02 -1.27515689e-01
   4.62261364e-02 -1.52512744e-01 -2.72922572e-02  6.37809038e-02
   4.30993326e-02 -6.79593673e-03  4.34098057e-02  1.64081026e-02
  -4.00691070e-02 -1.87740698e-02  1.86727680e-02  4.61320532e-03
  -5.66261895e-02  1.15797475e-01  9.82909743e-03 -8.63873772e-03
   2.73804623e-03 -3.75909694e-02  2.91779060e-02  8.15843567e-02
   3.53888683e-02 -1.23114206e-01 -7.92964622e-02  1.54956607e-02
   5.95822074e-02  5.81720006e-03 -4.48553115e-02  1.24252187e-02
   1.74468011e-02 -3.91953140e-02  2.53041498e-02  4.68272297e-03
   4.72477488e-02 -6.67207390e-02  5.23653440e-03  4.92205620e-02
  -3.63943689e-02 -9.69212502e-03  6.26845434e-02 -2.90601719e-02]
 [-4.08680476e-02 -2.23810263e-02 -5.40663861e-02 -5.06150443e-03
   3.96367125e-02  9.90956947e-02  1.54987560e-03 -4.29840758e-02
  -3.29297423e-01  1.04143200e-02 -4.58515361e-02 -2.48850277e-03
   4.71903794e-02 -5.33081554e-02  1.54534318e-02 -2.09672287e-01
  -1.10090030e-02 -1.50072863e-02 -3.24322991e-02 -1.04526311e-01
  -1.19787946e-01 -3.77000719e-02  9.24415886e-03 -1.34040164e-02
   2.49351114e-02  7.81337451e-03  3.62948962e-02  9.81957540e-02
   3.39105949e-02  4.14002873e-02 -3.38897891e-02  2.83771027e-02
   4.04335819e-02  2.06236511e-01 -4.54096161e-02  5.07808700e-02
  -8.33191201e-02 -4.36361171e-02  9.95666534e-03  2.43352726e-02
  -7.86726326e-02  1.30242687e-02 -3.25384438e-02 -5.63835725e-02
   2.21758038e-02  7.06446618e-02  4.95567285e-02 -3.10444478e-02
  -2.33081896e-02 -1.19660117e-01 -2.47914009e-02  5.77429496e-02
  -3.21355648e-02  5.80591373e-02 -5.90347573e-02 -1.07235596e-01
   3.57727148e-02 -7.99883343e-03 -4.79674824e-02 -1.50427371e-02
  -1.33314356e-01  4.90219593e-02  2.00647898e-02  2.41121333e-02
  -1.66736301e-02 -1.49194095e-02 -9.25416127e-02  5.31659238e-02
  -7.64921028e-03 -3.42149772e-02 -1.91917792e-02  3.10748685e-02
   6.65476248e-02 -1.75375040e-04 -8.18838701e-02 -1.34134628e-02
   4.44866084e-02 -2.43176054e-02  1.69276353e-02  8.72908067e-03
   1.79589689e-02  2.11433277e-01  4.76617739e-02 -1.18540026e-01
   4.92999144e-02  2.00549942e-02 -3.84788811e-02  2.72032022e-01
   1.81695540e-02 -1.56730607e-01 -1.62943657e-02  1.65928900e-02
   4.64051254e-02  4.05360721e-02 -2.83088032e-02 -1.97582588e-01
   4.28530388e-04 -1.88237857e-02 -6.11646986e-03 -2.22939085e-02
  -2.02676967e-01 -4.89841178e-02 -3.81986573e-02 -2.29945462e-02
  -4.24602628e-02 -6.14752211e-02  7.25525841e-02 -5.24392957e-03
   5.68486378e-02  4.25005555e-02 -2.78518535e-03  2.13842951e-02
   9.20500420e-03  9.24629718e-03 -5.50638549e-02 -4.94024456e-02
  -2.65563559e-02  6.45943806e-02 -1.04080820e-02 -4.40344587e-02
   4.69873510e-02 -7.68241137e-02 -9.48698074e-03  4.55287956e-02
  -2.27145720e-02 -1.03600100e-01 -4.59356904e-02  3.76064256e-02]
 [-1.03250347e-01 -4.21134010e-02 -8.38796198e-02 -5.52574769e-02
  -1.43732596e-02 -3.49093378e-02 -4.55586687e-02 -6.39641732e-02
  -3.17424126e-02 -7.65695795e-02  2.91205794e-02 -4.02188189e-02
   2.98442896e-02 -2.31894627e-02 -5.19165061e-02 -1.09123416e-01
  -5.36714308e-02  3.02596577e-03  9.38287191e-03  8.16500038e-02
   4.56797890e-02  6.01720484e-03 -1.03788204e-01 -1.03680426e-02
   3.53206806e-02 -3.72767858e-02  2.10054684e-02 -1.56430840e-01
  -6.73502088e-02  3.86507483e-03  1.47943661e-01  2.61857901e-02
   8.40766504e-02 -1.06365591e-01 -1.74497627e-02 -1.53904865e-02
   1.61847606e-01 -3.90111320e-02 -2.18196809e-02 -7.84474090e-02
   3.13672870e-02  1.04781101e-02 -1.15284836e-03 -1.33952508e-02
  -1.28621329e-02  1.88924391e-02 -6.19279742e-02  1.00420021e-01
  -2.63786800e-02 -1.29423380e-01 -7.79241249e-02 -3.90063077e-02
   2.40319688e-02 -1.47866845e-01 -9.45540592e-02 -6.84725717e-02
  -6.99298233e-02 -5.08779846e-02 -5.14439754e-02 -3.12439557e-02
  -1.35438502e-01 -2.45995130e-02  4.64285277e-02 -3.26693095e-02
   3.64729576e-02  2.01277360e-02  1.02753595e-01 -5.51986061e-02
  -2.00555604e-02  8.90301540e-02  4.31072414e-02 -4.86453585e-02
   7.49054924e-02 -4.59957235e-02  2.71702949e-02 -3.88729759e-02
   2.69990060e-02  1.78352371e-02 -8.23232811e-03 -2.59534325e-02
   3.77926491e-02 -5.98797612e-02 -5.59637137e-02 -8.93806946e-03
  -4.60402220e-02 -9.37567055e-02 -5.26525406e-03  7.04537472e-03
   7.85730556e-02  9.06641185e-02 -5.51442653e-02 -6.03191257e-02
   2.11822335e-02 -1.65634491e-02 -3.93612795e-02  7.85009842e-03
   1.00950114e-02  5.98048046e-02 -5.99909611e-02 -1.07645152e-04
   1.05538562e-01 -6.46232162e-03 -4.21233624e-02  2.65443381e-02
   2.81251743e-02 -2.36044079e-02  9.53615061e-04  8.61814544e-02
   2.30379812e-02 -1.45790488e-01 -5.98956682e-02  5.03823580e-03
  -6.28370326e-03 -1.70661315e-01  6.36777803e-02 -8.30579363e-03
   6.97023422e-02  1.45552098e-03 -4.65600658e-03  8.57847333e-02
   1.40486713e-02  1.84017383e-02  3.77279520e-02 -1.25027644e-02
  -3.88986096e-02 -4.44469675e-02  5.30464277e-02 -4.69489815e-03]
 [-4.39977646e-02 -5.15816361e-02  3.89352925e-02 -6.54096901e-02
  -6.13897592e-02  8.45706614e-04 -9.97139700e-03  1.92937590e-02
  -1.31025910e-01  4.77251895e-02  4.68892939e-02 -7.96318427e-02
  -2.99031418e-02 -6.04190677e-02 -6.26255870e-02  7.62673244e-02
   3.88552388e-03 -3.34534124e-02 -4.02618162e-02 -8.12870190e-02
  -9.33695212e-02 -8.68679136e-02  1.07851056e-02 -7.13711455e-02
  -7.77017400e-02 -3.47831734e-02  4.30813693e-02  2.65523512e-02
   2.24055499e-02 -4.69482541e-02  9.01809484e-02 -8.09310675e-02
   4.43212278e-02 -1.32524505e-01  6.52967244e-02  3.90996365e-03
  -8.84467736e-02 -3.91522283e-03 -1.15260467e-01  1.27730202e-02
  -5.96019588e-02  1.93451084e-02 -2.81099901e-02 -3.22789361e-04
  -3.58174071e-02  6.52059093e-02 -1.10763824e-02  2.12676637e-02
   5.21970056e-02 -6.63750693e-02  9.63868722e-02  2.69032344e-02
  -6.94503030e-03  4.15030345e-02 -1.10692814e-01 -1.43652901e-01
   4.32482287e-02 -1.39106438e-03 -4.37295027e-02  3.01077086e-02
   3.89409363e-02 -4.55731228e-02 -1.78603847e-02 -2.89265066e-02
  -3.06291096e-02 -6.91490155e-03  1.82495406e-03  4.34940308e-02
   2.26718094e-02 -1.44794226e-01  3.17047574e-02 -1.30010890e-02
   4.55145538e-02 -1.88598745e-02  7.90747628e-03  1.37755545e-04
   2.90601812e-02  4.69148112e-03  4.91980016e-02 -1.76321417e-02
  -1.78598147e-02 -1.64372191e-01 -3.88698094e-02 -1.12023100e-01
  -6.01643138e-02  5.91419004e-02 -3.92141193e-03 -3.17606069e-02
   3.81419361e-02 -3.64756025e-02  1.87292676e-02 -1.44594163e-01
  -6.92522451e-02 -5.20722084e-02 -3.27567644e-02 -8.40084702e-02
  -5.13096005e-02 -5.19709103e-02 -3.58921736e-02  2.61999704e-02
  -4.76864912e-03 -3.34872082e-02 -1.10314442e-02 -3.20915431e-02
   3.59030697e-03 -5.99138774e-02  2.58087479e-02 -5.63448742e-02
   1.11345977e-01 -1.32951215e-01 -1.36672938e-02  4.24327701e-02
  -3.62376235e-02 -5.86523069e-03  2.50090603e-02 -3.92661542e-02
  -7.30936602e-02  4.05257568e-02 -5.06555708e-03  1.39682852e-02
   5.73489778e-02  3.69718075e-02 -8.65703374e-02  1.86177507e-01
   1.67982262e-02 -8.99833292e-02 -1.39804613e-02  4.66284938e-02]
 [-3.45311291e-03 -2.66844835e-02 -3.25379707e-02 -7.16095641e-02
  -2.19411030e-02  2.14406587e-02  8.11066385e-03 -1.76210739e-02
  -2.35607103e-03 -5.69035001e-02  1.75865013e-02  7.23616108e-02
   1.74235106e-02 -7.01152980e-02  5.23950458e-02  4.07957882e-02
  -1.35847200e-02 -3.71798617e-03 -1.80457607e-02 -9.56752747e-02
   3.58457416e-02  2.83096451e-02 -6.74356073e-02 -6.29589558e-02
  -1.53784817e-02 -4.27977331e-02 -5.97545654e-02 -3.95571552e-02
   3.46065834e-02  3.91039178e-02  5.94296753e-02 -1.14263464e-02
  -3.41118239e-02  6.83129067e-04  1.99733190e-02 -3.31526175e-02
   4.51035351e-02  1.78489890e-02  1.64292157e-02 -5.07425480e-02
   7.35205337e-02 -1.14404254e-01 -1.76609065e-02 -4.28158268e-02
  -5.18806949e-02 -1.50079476e-02 -5.78892268e-02  1.99366678e-02
   2.37830114e-02  3.91717702e-02 -1.90540478e-02 -8.80878493e-02
  -4.68225442e-02 -1.61687694e-02  4.34160009e-02 -2.81937830e-02
  -5.30939400e-02 -1.13566175e-01 -1.14961164e-02  3.23425792e-02
  -4.38140109e-02 -3.24796746e-03 -8.34783539e-03  4.57945392e-02
  -4.86487225e-02  8.96776095e-03  1.41910901e-02  5.06273769e-02
  -4.50904146e-02 -4.67787584e-04 -5.15357368e-02 -5.96502349e-02
  -3.38746794e-02 -6.72111101e-03  1.24902405e-01 -4.55980608e-03
  -3.30637805e-02  2.90766731e-03 -7.42201880e-02 -4.09447178e-02
  -3.30150686e-02 -3.34766544e-02  4.17216029e-03 -2.27681063e-02
   6.01530960e-03  4.95104864e-02  4.49645370e-02  8.44247639e-03
  -4.26107049e-02 -8.96842256e-02 -6.31702244e-02  7.99165592e-02
  -3.89305577e-02  2.11603139e-02 -4.39005978e-02  9.50665120e-03
  -5.12842350e-02  3.68728638e-02 -4.09679152e-02 -1.37451002e-02
   1.02710009e-01  1.63981229e-01 -5.49690574e-02 -2.24181470e-02
  -9.05114692e-03  1.10640340e-02 -8.28617215e-02  1.93206277e-02
   2.31498573e-02 -4.46582809e-02  8.74960609e-03 -5.83892129e-02
   2.00805981e-02  9.00187194e-02  1.33612277e-02 -6.60395548e-02
  -4.83781658e-02 -6.74000606e-02 -5.01422696e-02 -4.89381179e-02
   1.24026418e-01  1.41639993e-01  2.75710188e-02  1.11943133e-01
  -8.05335585e-03 -1.08853811e-02 -4.08116654e-02 -4.73975018e-02]
 [ 2.86998469e-02  1.88679737e-03 -7.53932446e-02  4.11490761e-02
  -2.80801952e-02 -9.13835540e-02  2.22955234e-02  7.00655654e-02
   3.68066169e-02 -5.84309036e-03 -2.75920294e-02 -1.14950873e-01
  -3.39975804e-02 -4.62337844e-02  1.03100762e-02  6.02321178e-02
   1.97888035e-02  2.80587599e-02 -8.28948468e-02 -9.05719101e-02
  -2.74611842e-02 -1.65572483e-02 -2.14732252e-02 -4.10475861e-03
  -2.39265058e-02  9.22697596e-03  3.43709178e-02 -8.04417878e-02
   3.57171930e-02  1.54206324e-02 -5.34832887e-02 -6.80565834e-02
   2.66032871e-02 -4.24013548e-02  1.93539411e-02 -1.73652172e-02
  -1.34578813e-02  5.51611446e-02 -4.06750515e-02 -3.72058153e-02
  -4.51679230e-02  4.86928225e-02  2.57463921e-02 -5.80516048e-02
   6.55262591e-03 -1.36619769e-02  2.07263324e-02 -3.59161288e-01
   3.08332630e-02 -1.88884325e-02 -3.65045965e-02 -6.54596910e-02
   1.74236260e-02  1.40586577e-04  6.47198856e-02  5.87316453e-02
  -4.73964773e-02  4.89969440e-02  3.94565873e-02  2.66774446e-02
   9.45146978e-02  1.67835914e-02 -1.27071664e-01  1.05516471e-01
   2.10541375e-02  3.91211768e-04 -1.60607174e-02 -2.54019741e-02
  -3.79260816e-02  4.59273569e-02  4.59799245e-02  5.82144782e-02
   4.12561558e-03  9.89307556e-03  5.16575761e-03  2.68401429e-02
   2.66968366e-02  6.87444210e-03 -2.79049296e-02  8.31254292e-03
   2.81507280e-02 -9.07733291e-02 -5.13673872e-02 -7.93566182e-02
  -5.33607006e-02  5.37500307e-02 -1.07038962e-02 -1.42200500e-01
  -4.36905846e-02 -6.49186522e-02  1.59767941e-02 -2.12815180e-02
  -4.94848602e-02  1.24349687e-02 -4.39734571e-02 -7.52088651e-02
   1.96415242e-02 -4.89791855e-02 -4.69028093e-02  2.96082236e-02
  -1.88678652e-02  8.27408060e-02 -4.80446927e-02 -2.70753242e-02
   7.17428699e-03 -6.06828630e-02 -6.17298931e-02  4.62292284e-02
  -9.86029208e-02 -1.54591929e-02  2.29372494e-02 -1.50920330e-02
  -5.54516427e-02 -1.08972542e-01  1.39260860e-02  3.28902192e-02
  -1.80876236e-02  4.67706285e-02  4.33714017e-02 -1.14524297e-01
  -1.09803595e-01 -1.08628273e-02 -2.42362116e-02 -1.82603166e-01
  -7.53261149e-03  3.47938351e-02  2.48821415e-02  2.92381197e-02]
 [ 2.51039900e-02 -8.84544328e-02  2.75232904e-02  2.94237435e-02
   1.45885497e-02  2.78293621e-02 -8.13898519e-02 -2.84306798e-02
   7.84645900e-02 -6.87649027e-02 -4.21466655e-04 -8.87256190e-02
   3.85870300e-02 -6.13683797e-02 -5.90181090e-02  7.17412978e-02
   4.29251604e-02  2.40755770e-02  2.39390545e-02  6.86655119e-02
   1.92462467e-02 -2.37696525e-02  4.59854268e-02 -2.83594150e-02
  -1.55238369e-02 -3.16164456e-02 -2.58218274e-02  5.21360487e-02
  -6.61541075e-02 -8.16443488e-02  8.73530954e-02 -6.46644086e-02
   6.92815259e-02  1.75091494e-02 -7.31707830e-03 -5.78235574e-02
   1.44140795e-01  1.42790684e-02 -1.01410225e-02 -4.24786285e-02
  -8.18617567e-02  5.00590503e-02 -6.72661094e-03  4.30481024e-02
  -6.09648935e-02 -1.17256502e-02  1.42305926e-03 -2.92457528e-02
  -2.38903407e-02 -1.97392583e-01  9.28791538e-02  6.87619224e-02
   8.48551467e-03  9.71466675e-03 -2.15797145e-02 -4.79748733e-02
  -1.64559819e-02 -6.48772623e-03 -1.14094894e-02  3.10301166e-02
  -3.13060768e-02  1.14429938e-02 -5.03368489e-02  8.76228139e-02
  -4.84426878e-02 -2.46567130e-02 -1.66892171e-01 -4.92447540e-02
  -5.87651283e-02 -1.23710752e-01 -2.95626298e-02  1.68966642e-03
   4.03013788e-02 -3.55801918e-02 -1.27127524e-02  5.59017472e-02
  -1.74754653e-02 -3.75944860e-02 -1.72091257e-02 -1.54177547e-02
   6.15936983e-03  1.87780764e-02  1.58843026e-02 -1.40090822e-03
   5.24985157e-02  1.37378290e-01  4.70127128e-02 -6.48567751e-02
  -2.64801122e-02 -1.28178170e-03  3.49819697e-02  6.72129393e-02
   4.53239009e-02  2.66595539e-02  3.26104984e-02  4.27201353e-02
   1.07421950e-02  2.50626868e-03  6.87468378e-03 -5.38382418e-02
  -6.93652257e-02 -6.25363961e-02 -1.46761108e-02 -5.01561239e-02
  -8.31111073e-02 -2.82649845e-02  8.68136138e-02  1.52725324e-01
  -8.43742341e-02  2.43216399e-02  3.26926745e-02 -1.33820679e-02
  -1.74865630e-02  1.96859855e-02  8.35647527e-03 -4.68016155e-02
  -1.20976074e-02 -8.05381164e-02 -3.41507606e-02 -2.86773406e-02
   1.04753584e-01  2.95328558e-03  1.91204958e-02 -1.57231465e-02
  -2.99498485e-03 -3.60146090e-02 -7.39535093e-02 -3.48550305e-02]
 [ 6.07937388e-03 -3.45574282e-02  5.35983406e-02  4.79614325e-02
  -5.75442575e-02  2.82499462e-01 -5.22345938e-02 -7.20658526e-02
  -2.45162100e-01 -1.20916767e-02 -3.47648226e-02  2.07604766e-02
  -4.18472551e-02  1.28566971e-04  6.13269173e-02 -2.01339617e-01
   4.31568474e-02 -7.17752278e-02 -1.73480082e-02  4.12391610e-02
  -1.03866225e-02 -6.21255152e-02  8.03992245e-03 -6.26328662e-02
   1.51982391e-02 -2.47583911e-02 -3.44452113e-02  1.59203410e-01
  -2.07143892e-02 -3.78475226e-02  4.63582352e-02 -6.67847926e-03
   8.05518869e-03  1.63200021e-01 -4.07029428e-02  5.72084216e-03
  -5.55636697e-02  2.86538992e-02  1.22223340e-01  5.30513525e-02
  -7.01281726e-02 -3.97166647e-02 -2.24520098e-02  3.73381227e-02
  -6.48754537e-02  5.52175939e-02  3.71372849e-02 -9.18585733e-02
  -3.86569202e-02 -2.25878060e-01 -1.82478335e-02  2.34068632e-01
   2.21311804e-02 -8.59402120e-02 -1.27338409e-01 -1.85601071e-01
   5.07959761e-02 -8.12112093e-02  5.18746907e-03 -4.25194055e-02
  -9.63256434e-02  2.64636666e-01  1.01877652e-01  7.60027766e-02
   1.31148165e-02 -1.12380153e-02 -1.04093790e-01 -2.85453945e-02
  -3.98708396e-02 -4.13288549e-02 -2.87552439e-02 -4.64028157e-02
  -6.79525957e-02 -5.65080307e-02 -1.48174092e-01 -5.32563888e-02
   5.54421321e-02 -2.15282049e-02  1.43632749e-02 -2.92545781e-02
  -6.01569898e-02  1.52394369e-01 -2.44901013e-02 -6.57342095e-03
  -7.15336530e-03 -1.22111402e-01  1.56333465e-02  1.46357581e-01
   7.82453641e-02 -1.11421868e-02 -2.11217683e-02 -9.61606801e-02
   1.90876443e-02 -1.27505157e-02  2.62294319e-02 -1.92526609e-01
   4.18308983e-03 -7.40225986e-02 -1.94697082e-02 -2.61079110e-02
  -8.87213349e-02 -2.37944603e-01 -9.29260403e-02  1.17516546e-02
  -3.71457227e-02  2.60179602e-02  1.98936522e-01  1.81450099e-01
   1.04803510e-01 -8.03129841e-03  1.65031441e-02 -3.95470262e-02
   1.43150285e-01  8.70629027e-02  1.73617005e-02 -4.11043689e-02
   4.41046730e-02 -9.31168534e-03  1.42067596e-02 -5.15593328e-02
   5.20913079e-02 -6.41741008e-02 -9.24332812e-03 -5.84025905e-02
  -1.86765462e-03  3.50153707e-02  5.49689168e-03 -2.50531808e-02]
 [-5.70703670e-02 -6.80174083e-02 -3.22552659e-02 -3.41817215e-02
  -6.57258332e-02  6.28296733e-02 -1.13253608e-01 -6.68414384e-02
  -3.40310857e-02 -1.14654964e-02 -6.12142347e-02 -5.25789857e-02
   1.50134284e-02 -1.81053346e-03 -5.21664992e-02 -7.12688779e-04
   1.06900223e-02  1.37987696e-02  7.13280030e-03 -2.66118976e-03
   2.03871969e-02 -5.11598699e-02 -1.87734421e-02  5.68517819e-02
  -4.69696969e-02 -3.07221767e-02 -6.75725043e-02 -1.03468560e-01
  -8.18151161e-02 -1.20288897e-02 -2.55822521e-02  2.03426760e-02
   1.66241117e-02 -4.82379831e-02  9.49041545e-03 -1.49211902e-02
   1.14514440e-01 -4.02216874e-02 -2.78537683e-02 -1.14323748e-02
  -3.28251719e-02 -8.69697481e-02  4.95654568e-02 -1.10004852e-02
  -2.83366479e-02  5.00323474e-02  5.37202731e-02 -6.48865253e-02
  -7.20366165e-02 -1.36471987e-01 -4.36110906e-02  3.73898856e-02
  -6.75920770e-02 -2.92818900e-02 -5.95402084e-02 -5.01918271e-02
   2.86293365e-02  2.59672478e-03 -3.98562700e-02  5.33231348e-02
  -1.50425524e-01 -1.61710847e-02  2.91304383e-02 -4.81633544e-02
  -6.23296499e-02 -7.48581663e-02  8.73206481e-02 -2.31158361e-03
  -3.11346184e-02  4.11049649e-02  9.60016157e-03 -8.12887102e-02
   4.40789387e-02 -5.97299188e-02  6.29965067e-02 -1.78332627e-02
   3.42791528e-02 -4.66505624e-02 -2.89788954e-02 -8.11604634e-02
   9.86640826e-02 -4.65372875e-02 -5.46581391e-03 -6.46845475e-02
   2.66369916e-02 -8.01035315e-02  2.47520059e-02  3.66901490e-03
   8.47754925e-02 -4.61046733e-02 -1.82518046e-02 -2.29011271e-02
  -6.36291578e-02  5.75314425e-02  2.03364473e-02  2.52812915e-02
  -3.14778276e-02  4.29554507e-02 -3.82512622e-02 -7.12898448e-02
   4.50479575e-02 -7.15200230e-02 -6.68555200e-02 -4.10933532e-02
   8.35070387e-02  2.68293358e-02  1.34468094e-01  1.29205912e-01
  -5.95921502e-02 -1.68975487e-01  3.43284905e-02 -8.16400629e-03
  -7.66360015e-02 -3.59968357e-02 -3.96301784e-02 -5.59701435e-02
   6.35901541e-02  2.24719681e-02  4.34859954e-02  2.82645854e-03
   8.37316066e-02 -2.26463471e-02 -7.97983911e-03  4.19733562e-02
  -6.49183840e-02 -5.64408600e-02  3.15867960e-02  5.07826395e-02]
 [-3.29715423e-02 -2.96747442e-02  4.29897057e-03  2.44928710e-03
  -2.64670085e-02  1.82682462e-02 -5.89438081e-02  4.29699980e-02
  -8.30762908e-02  1.98149160e-02 -4.90589961e-02 -9.86606777e-02
  -2.62288656e-02 -6.55444292e-03  1.51569694e-02  8.47191177e-03
   2.18307674e-02 -1.75667610e-02 -3.85932773e-02  4.61477488e-02
  -1.48019763e-02  1.02228662e-02 -2.96420790e-02 -3.40256877e-02
  -6.87162438e-03 -1.53994225e-02 -6.46715835e-02 -3.81055623e-02
  -9.45302099e-03 -6.64642900e-02  1.63871154e-01 -8.45007449e-02
  -2.71821078e-02 -9.97739136e-02 -1.79399718e-02 -3.54213715e-02
  -4.42318209e-02 -2.27703471e-02  1.00605702e-02 -4.50710254e-03
  -3.61101069e-02 -4.54210192e-02  3.62670347e-02 -5.77668706e-03
  -2.86998190e-02 -4.46821414e-02  3.99382785e-02  2.68109632e-03
   8.89580175e-02  1.13416351e-01  1.04346581e-01  2.97499560e-02
  -4.16442519e-03  5.11562191e-02  3.95144001e-02 -9.04249474e-02
  -7.44427554e-03 -1.79168563e-02 -5.16219512e-02  4.82919365e-02
  -1.18141294e-01 -1.62118018e-01 -1.83924101e-02 -9.04682502e-02
  -2.88242716e-02  2.27181092e-02 -6.14603721e-02  4.62249368e-02
  -4.25043777e-02  2.14289241e-02 -1.75780300e-02 -1.68121625e-02
   8.44032466e-02 -5.21598682e-02  7.51843080e-02  2.25357246e-02
  -2.75897421e-03 -6.55717552e-02 -9.72898211e-03 -3.30774090e-03
   4.02417667e-02 -2.01913137e-02 -1.47458771e-02 -5.61503172e-02
  -2.65969746e-02 -3.41691077e-02 -1.22451456e-02  8.01398046e-03
  -1.35470536e-02 -9.43901134e-04 -7.08924159e-02  2.31034812e-02
  -7.32150450e-02  1.43449558e-02  2.19899099e-02  1.02431715e-01
   5.06061949e-02 -7.31015503e-02 -1.74346771e-02 -3.70015502e-02
   9.64192301e-02  7.54747689e-02 -4.19219136e-02 -2.39993799e-02
   2.88452506e-02  4.19361629e-02  4.60197218e-02  8.58872682e-02
   8.38367920e-03 -1.12107180e-01 -5.73537871e-02  1.33676827e-03
  -3.46613899e-02  8.71129557e-02 -7.00101480e-02 -5.76272933e-03
   5.98278902e-02  4.89863455e-02 -2.86385473e-02  1.15282133e-01
   1.27654165e-01  5.48159517e-02  1.56105552e-02  4.54093032e-02
  -1.09110354e-02 -2.50364598e-02  2.42850967e-02  1.76353361e-02]
 [ 4.82252091e-02  2.06789281e-02 -3.74434106e-02  1.01947309e-02
   2.39648186e-02  9.71571803e-02 -6.49396181e-02 -5.74884936e-02
  -4.72603180e-03  7.90380873e-03 -5.50057068e-02  2.31384970e-02
  -1.50881754e-02  5.43512916e-03 -5.94375767e-02 -1.13443928e-02
   6.83673378e-03 -9.98629909e-03 -9.15851071e-03 -2.79837046e-02
   1.12481751e-02 -7.79400254e-03 -4.79266196e-02 -5.83572872e-02
  -2.52127871e-02 -7.34544024e-02 -4.84981798e-02  5.45369275e-03
  -2.89267208e-03 -2.15655547e-02 -5.84292505e-03 -7.03593716e-02
  -3.05435378e-02  6.37762621e-02 -3.73163372e-02  5.58219925e-02
   1.31287128e-01  1.03095844e-02  2.21708082e-02  8.83326121e-03
   1.04828946e-01 -8.76175910e-02  3.84587795e-02 -1.75542217e-02
  -2.65308265e-02 -5.11943176e-02  4.07784618e-03  5.52715659e-02
   4.60736677e-02  3.17080356e-02  8.43584612e-02 -4.91336733e-02
  -5.65627329e-02 -2.18576044e-02  1.09395847e-01  1.78200286e-02
   2.28687059e-02 -2.64059249e-02 -1.21802026e-02 -4.77555878e-02
  -2.76223607e-02  2.07532626e-02 -1.10498704e-01 -5.48725463e-02
  -8.00545961e-02 -5.73576391e-02  1.90792903e-01 -3.10878213e-02
  -3.81826311e-02 -5.28722890e-02 -1.91302076e-02  3.30382474e-02
  -5.29725887e-02 -7.93279335e-02  4.51624170e-02  4.34540510e-02
   3.64709087e-02 -2.99775191e-02  2.04894766e-02 -2.36143656e-02
   4.38498296e-02 -4.44445461e-02 -2.47951243e-02  7.43910298e-02
  -6.28581941e-02  3.31141986e-02  5.56328259e-02  3.14180851e-02
  -3.10068801e-02 -1.45212501e-01  4.23351303e-02  4.88766506e-02
   2.52100322e-02 -2.98972446e-02  3.86812463e-02  5.81420064e-02
  -3.89692374e-02 -4.67832945e-02 -6.76253363e-02 -1.78623777e-02
   1.71486691e-01  9.86547917e-02 -2.02884618e-02 -7.04827607e-02
  -7.41700977e-02  1.70572419e-02  4.35195770e-03  5.80177829e-02
  -1.22866007e-02 -1.41507899e-02 -3.49818282e-02 -5.16172945e-02
   2.69681085e-02  3.44612002e-02 -4.07035388e-02 -6.05236031e-02
   5.69402501e-02 -6.52947575e-02 -2.22744532e-02 -5.94960935e-02
   7.54821226e-02  9.10051465e-02 -4.06034105e-02  2.36754864e-03
   1.01148002e-02 -2.33278461e-02 -4.85431626e-02 -5.18174917e-02]
 [ 2.76741162e-02 -3.24373916e-02  3.63682061e-02 -4.10358980e-02
   4.12293598e-02 -5.86189404e-02  2.59138248e-03  5.73854782e-02
  -4.73797694e-03 -5.14080077e-02 -5.49587309e-02 -4.82123299e-03
  -4.14947122e-02 -2.51810551e-02 -3.72922793e-02  2.34440252e-01
  -3.59422341e-02 -4.52364422e-02 -1.28617853e-01 -1.15189463e-01
   4.91264276e-02 -8.88830144e-03 -3.76303680e-02  3.64443623e-02
  -4.01636809e-02  1.91591829e-02  6.02344349e-02  5.14756441e-02
  -5.04935645e-02 -5.30640893e-02 -5.74945658e-02 -5.47373760e-03
  -7.28862733e-02 -1.17479451e-01  3.27643454e-02 -3.31158116e-02
  -8.65962207e-02 -2.91086305e-02 -1.74209774e-01  4.50266786e-02
  -1.69343576e-01  2.49527879e-02 -1.63138546e-02 -4.75068353e-02
  -6.59631714e-02 -2.66008321e-02 -4.75992225e-02 -2.26311192e-01
  -6.42400375e-03  2.95619899e-03 -6.10994473e-02 -1.07867397e-01
  -4.26171273e-02  2.07308144e-03  1.00517562e-02  2.10040472e-02
   2.64104344e-02  4.29763049e-02  4.85200388e-03 -4.08793278e-02
   1.01110026e-01 -6.45520985e-02 -3.35098319e-02 -2.23045181e-02
  -9.61298645e-02 -4.55301441e-02 -4.90083918e-02  7.91177154e-04
  -4.41725329e-02 -2.47031003e-02 -7.28610530e-02 -2.54710182e-03
  -5.84779456e-02 -7.82344397e-03  1.11128382e-01 -3.22351120e-02
  -5.27668260e-02 -5.74587584e-02 -5.80962375e-02 -2.73133814e-02
  -5.01939505e-02 -2.57909447e-01  1.70473680e-02 -6.85388148e-02
  -6.97837323e-02  2.06414778e-02 -1.80182494e-02 -9.31217335e-03
  -9.69260857e-02 -2.72869021e-02 -5.53791076e-02  3.11111249e-02
   5.42376414e-02 -3.51574197e-02  5.58760539e-02 -8.18665475e-02
   1.08742537e-02  2.01221313e-02  3.07546817e-02 -6.06793910e-02
  -1.31279588e-01  3.85217592e-02  3.85935232e-02  1.72953047e-02
   2.65537538e-02 -4.50585783e-02 -1.09706268e-01 -2.16148719e-01
  -2.09296141e-02 -6.48837462e-02 -4.49460037e-02  2.03786362e-02
   4.09003273e-02 -1.04929982e-02 -6.88127577e-02 -2.47351862e-02
  -1.04566373e-01 -5.65983914e-02 -1.49232177e-02 -7.85809662e-03
  -2.25731000e-01 -9.55111012e-02  5.73296919e-02 -1.22580267e-01
  -8.48113617e-04 -5.02287271e-03 -2.51710005e-02  2.87049636e-02]
 [ 3.69061008e-02 -2.11263578e-02 -4.52524982e-02 -4.95293625e-02
  -2.41592657e-02  3.66808884e-02  2.82227229e-02  1.89508088e-02
   9.17579047e-03  3.82291414e-02  2.38169841e-02  5.46762682e-02
  -1.60019025e-02 -6.94969296e-02  1.08856345e-02  5.67912348e-02
   1.97366551e-02 -4.33101021e-02 -7.90313855e-02  2.13647261e-02
  -4.95153069e-02 -1.60159601e-03 -3.10851038e-02  4.70341071e-02
   2.04449575e-02 -6.42307056e-03 -3.88102010e-02 -6.49771616e-02
   2.17602123e-02  3.04331584e-03  3.40478718e-02 -2.61976067e-02
  -3.53085473e-02 -6.12508096e-02 -3.23302858e-02 -1.18663628e-02
   9.00864005e-02  6.42624684e-03  6.04312569e-02 -2.15324424e-02
  -1.22243725e-02 -7.21478760e-02  5.00612594e-02  2.58435532e-02
   4.35120836e-02  1.04624755e-03 -3.94222215e-02  9.78330895e-03
  -7.64751993e-03 -1.13135904e-01 -8.66044834e-02  4.92997020e-02
  -6.17653280e-02 -5.78040369e-02  6.45791814e-02 -8.07061885e-03
   1.11416855e-03  2.16670204e-02 -7.77684227e-02 -6.49357121e-03
   1.22506835e-01 -2.60071643e-02  1.13880849e-02  6.68844730e-02
   4.48157312e-03  1.08509474e-02 -1.59366369e-01  5.03917560e-02
   1.77035350e-02 -6.96409717e-02 -8.76767747e-03 -2.47121099e-02
   5.88535145e-03  4.03553136e-02  7.65691176e-02 -4.83815409e-02
  -2.42432747e-02 -1.50223076e-02 -4.79601622e-02 -7.63299093e-02
   2.47662496e-02  2.99398252e-03 -1.86184999e-02 -2.65694410e-02
  -3.75253558e-02  7.26548210e-02  1.70360636e-02  1.18693151e-02
   2.25412427e-03  8.83774906e-02 -2.14338861e-03  8.10405165e-02
  -5.31433560e-02 -5.54513037e-02 -8.12650751e-03  7.39291757e-02
   3.90038416e-02 -2.64275447e-02 -2.94792391e-02  3.54103744e-02
   2.38494389e-03 -4.41509709e-02  1.59916263e-02 -2.31053457e-02
  -1.97703708e-02 -1.13221677e-02  8.28575119e-02  8.12414438e-02
   5.28369248e-02  2.41698208e-03 -5.64834140e-02 -3.84947136e-02
  -9.71137546e-03 -4.63219471e-02  7.23008881e-04 -3.03882770e-02
   5.22849932e-02  1.06100515e-02 -3.56690958e-02  9.99523886e-03
   2.45095957e-02  6.73062354e-02 -4.44417447e-02  8.96910280e-02
  -1.06872292e-02 -3.61655578e-02 -1.40906302e-02 -4.00214344e-02]
 [ 5.29263653e-02 -2.11959090e-02 -4.31979187e-02 -3.73433828e-02
  -6.36149943e-02  3.14412825e-02 -1.22120194e-02  3.63306142e-02
  -1.41986281e-01 -6.24417849e-02  1.85206458e-02 -3.30623798e-02
   2.70102751e-02 -3.24847102e-02  5.36496863e-02 -3.54091786e-02
  -3.94238532e-02 -3.94979976e-02 -7.67424479e-02  6.11648299e-02
  -1.18432038e-01 -9.64731500e-02 -5.13398647e-02 -3.36396415e-03
   4.55370061e-02 -1.80427153e-02 -3.53832394e-02  7.03147575e-02
  -1.96114071e-02 -3.90622877e-02  4.02970091e-02 -5.61946183e-02
   1.18592614e-02  8.18311498e-02  2.60006934e-02  4.74584401e-02
  -1.52077422e-01  1.75198764e-02  2.51861453e-01  5.11596426e-02
  -2.29131300e-02 -8.73222947e-02  4.87992615e-02 -7.08488456e-04
  -1.24291088e-02  4.18008678e-02 -4.32984494e-02 -1.41227571e-02
   2.60887407e-02 -1.68186754e-01  4.15885299e-02  5.33641987e-02
   2.98636984e-02 -1.35714710e-02 -1.72974288e-01 -1.32795691e-01
  -1.86579451e-02  3.01150139e-02 -9.37148556e-02 -4.45554815e-02
  -6.80935243e-03  2.32402474e-01  1.48396447e-01  5.06663285e-02
   2.29823291e-02 -1.08686239e-02 -2.31032103e-01 -7.73835331e-02
  -4.80215959e-02 -9.96351689e-02 -6.08015954e-02 -6.09716773e-02
  -6.84493163e-04 -4.56544124e-02 -1.81183279e-01 -2.00662781e-02
   3.48658189e-02 -5.93786240e-02 -8.58615339e-03 -3.36814672e-02
  -4.10341956e-02  4.88583520e-02 -3.88184115e-02 -5.22093363e-02
   3.95548455e-02  6.52581155e-02  3.71020362e-02  5.06280325e-02
   6.86658695e-02 -1.16088808e-01 -1.40626787e-03 -1.56736627e-01
   1.12474030e-02 -2.65244171e-02 -2.38941386e-02 -7.25126415e-02
   3.74934971e-02  1.33577455e-02 -6.61129206e-02  1.67678520e-02
  -8.85455087e-02 -1.14469543e-01 -6.16743378e-02 -2.46074535e-02
   7.72857945e-03 -4.08023521e-02  1.09470874e-01  1.58139467e-01
   1.22563027e-01  3.22513655e-02  8.16854648e-03 -5.34880608e-02
   4.26870659e-02  4.60118204e-02 -4.90343496e-02 -1.35842822e-02
  -1.02020152e-01 -3.12957950e-02  2.85678450e-02  1.25998612e-02
   1.73182525e-02  7.05754831e-02 -2.98362058e-02 -9.48050767e-02
  -1.49903065e-02  1.89864952e-02 -5.48034497e-02 -4.64377366e-02]
 [-2.31442805e-02 -2.72474531e-02  1.34476349e-02 -5.71455471e-02
  -7.24390894e-02 -1.73026882e-02 -2.98737194e-02 -8.50779861e-02
  -5.77078834e-02 -3.76442522e-02  2.89314538e-02 -5.90659026e-03
   3.77914682e-02 -8.02278221e-02 -5.70967831e-02  1.69732347e-02
   4.50223461e-02 -4.59488817e-02  4.67060208e-02 -4.57782820e-02
  -9.37817991e-02 -2.67060455e-02 -6.51777089e-02  1.01352058e-01
  -2.06149369e-02 -7.85503909e-02 -1.16101988e-02 -1.52098432e-01
  -1.70619949e-03  2.94271279e-02 -6.73047965e-03  5.01868967e-03
  -6.97731823e-02 -4.81507033e-02 -8.25211499e-03 -7.96919595e-03
   6.25213310e-02 -3.39768901e-02 -4.61760955e-03  8.06356873e-03
   2.23954953e-02 -1.28414586e-01 -4.85581420e-02 -1.39873838e-02
  -4.27846536e-02  1.65109448e-02 -5.24352230e-02  4.22294289e-02
   3.70013863e-02  4.25254405e-02 -5.75226694e-02  1.08306762e-02
   3.59039009e-02 -9.78987664e-02  3.64238746e-03 -1.06127016e-01
  -4.08881195e-02 -2.91474294e-02 -3.90690528e-02  4.11693119e-02
  -1.29430950e-01 -4.23312038e-02  1.13463737e-01  3.48744802e-02
  -7.65280351e-02  4.73073833e-02  1.01330481e-01 -3.13800573e-03
  -2.26951353e-02  7.38699883e-02  2.83285175e-02 -5.13769500e-02
   8.80145207e-02 -1.30052809e-02  1.44419866e-02 -3.69542763e-02
   4.24729893e-03 -5.49186617e-02  4.17674296e-02  1.77994347e-03
   4.96734567e-02  4.45290841e-03  1.88996166e-03 -2.24465206e-02
  -2.32354030e-02 -1.77305378e-02 -1.76352113e-02  6.47836104e-02
  -4.14019451e-03  1.20677643e-01  2.15105284e-02  9.87365097e-02
  -5.93986399e-02  4.34997417e-02  2.21597645e-02 -4.14188206e-02
  -8.28935020e-03 -5.71519248e-02  5.75163774e-02  3.16453315e-02
   2.10665190e-03 -2.89583243e-02 -1.88895706e-02 -1.20727513e-02
  -8.84213671e-03  2.86325291e-02  8.89617950e-03 -2.40127370e-02
  -8.39063898e-02 -7.28809610e-02 -3.57981538e-03 -7.29555637e-02
   4.94032837e-02 -4.36331751e-03 -9.28791892e-03 -1.37261115e-02
  -8.16809535e-02 -8.79262388e-02  4.66273129e-02  1.18862830e-01
   1.38487974e-02  5.25898486e-02 -4.78140786e-02 -3.50741320e-03
  -4.07660343e-02 -4.52434160e-02 -1.91081893e-02  3.80656682e-02]
 [ 2.44067796e-02 -1.53175776e-03  4.14803252e-02 -4.21964796e-03
   5.96403982e-03  6.81437030e-02  1.21985981e-02 -2.79012173e-02
  -3.69910151e-02 -5.68274735e-03 -2.19127387e-02 -1.64485592e-02
   5.14046811e-02 -2.31571123e-02  4.56612818e-02  2.25676466e-02
  -1.59218404e-02  2.48900498e-03  6.14211559e-02 -3.63947526e-02
   1.84191875e-02 -4.86605838e-02 -3.99745777e-02  5.07526211e-02
  -6.91017807e-02 -2.87561379e-02  4.28899415e-02 -1.73205268e-02
  -2.99231466e-02  5.11830347e-03 -6.18220828e-02  1.08317584e-02
  -4.37073074e-02 -1.22594230e-01  6.11516871e-02  5.26637882e-02
  -1.22627772e-01  3.52212712e-02 -1.06158659e-01 -1.99964419e-02
   7.59554142e-03 -3.24672982e-02  3.04289814e-02 -2.20456198e-02
   3.47544774e-02 -1.02663346e-01 -6.39231503e-02  4.61930372e-02
  -3.38380374e-02 -8.90368447e-02 -1.98115855e-02  7.71309882e-02
   1.63373146e-02  1.29518397e-02 -1.59496367e-02 -9.86290202e-02
   3.27374041e-02  1.92434080e-02  8.24233238e-03 -6.03422225e-02
  -4.58169505e-02 -1.12479040e-02  8.57720599e-02 -2.69340281e-03
  -5.72101697e-02  4.58177961e-02 -1.65669814e-01  1.90338381e-02
  -3.89644876e-02 -2.78749205e-02 -9.12335515e-03 -2.14230418e-02
   1.53715268e-01  1.64751951e-02  8.40409659e-03 -5.53884124e-03
  -6.30309656e-02  1.19686089e-02  1.48184448e-02 -4.34196629e-02
  -7.48463124e-02 -5.91646694e-02 -5.42341694e-02 -1.69119805e-01
  -5.63387983e-02  9.52623435e-04  3.95804411e-03 -4.10710499e-02
  -1.67884324e-02  8.08024630e-02  1.75553560e-02  6.31642248e-03
  -6.92340881e-02 -2.28200518e-02  2.49407589e-02  3.82755138e-02
   2.49692798e-02  2.94582490e-02  1.84109509e-02  3.05374395e-02
   3.01448461e-02 -2.03107968e-01  1.95273962e-02  2.73085386e-02
  -4.59058583e-02 -3.67639288e-02  5.84316626e-02  7.58548733e-03
   5.27602015e-03  4.61910293e-02 -3.20819742e-03 -5.17850444e-02
   8.30421597e-03  1.11992829e-01  3.36846448e-02  1.16250794e-02
  -1.39221102e-01 -6.80121854e-02 -7.71439914e-03  2.72590071e-02
   1.73076451e-01  2.14997873e-01 -9.02121440e-02  1.79990172e-01
   3.85894217e-02  1.74001176e-02  6.27136230e-02  4.31084819e-02]
 [-1.62353180e-02 -1.80648807e-02  1.40927518e-02 -3.41240950e-02
   5.40786311e-02  1.63267758e-02 -2.87671946e-02  4.34026457e-02
   5.68599589e-02 -8.42418231e-04 -1.55568793e-02  1.89478453e-02
   3.18406709e-02 -3.12590785e-02 -7.01446366e-03  5.08273020e-02
  -2.64633894e-02 -2.02422850e-02 -6.84253126e-02 -6.96166381e-02
   7.31426897e-03 -2.71016750e-02 -1.68214843e-03 -6.20576628e-02
  -2.68156026e-02  1.85742173e-02 -7.82387331e-02  5.43320514e-02
   4.42638509e-02  9.25301164e-02 -2.67538037e-02  1.50644779e-02
   3.96514870e-02  6.42154738e-02 -7.26048201e-02 -4.26051877e-02
   1.44278914e-01 -5.45737259e-02 -1.18317152e-03 -4.16903272e-02
   7.85953030e-02 -7.64810741e-02 -5.49925677e-02 -4.75599654e-02
  -4.97084521e-02 -7.07721338e-02  1.33462902e-02  5.14806136e-02
   3.24800387e-02 -3.60810086e-02  9.58878770e-02 -6.89817145e-02
  -1.66305210e-02 -8.27369913e-02  7.67922029e-02 -3.15728895e-02
   1.77558661e-02 -4.33230363e-02 -1.18090771e-01 -2.38649119e-02
   7.39897192e-02 -1.32237701e-02 -1.11379229e-01 -2.75234077e-02
   5.66095039e-02  4.52727173e-03  1.05015300e-01  1.54546406e-02
  -2.18158457e-02 -7.85725713e-02  3.56905721e-02  7.08419830e-03
   3.28942165e-02  3.72984121e-03  2.36993730e-02 -4.65303957e-02
   4.38731387e-02 -4.96845171e-02 -8.43315795e-02  5.19392677e-02
   5.78599796e-03 -6.84255436e-02  4.62595224e-02 -5.58834430e-03
  -5.81441894e-02 -4.59763780e-02 -5.09015769e-02 -3.36147845e-02
   1.98539067e-02 -1.45552546e-01  1.77636556e-02  9.84615833e-02
  -2.27654576e-02  1.58997737e-02  2.18606181e-02  8.59198123e-02
   1.49833411e-02 -4.06602025e-02 -4.43172595e-03  3.10586356e-02
   9.34357010e-03  1.20716110e-01 -6.96713924e-02  2.06904449e-02
  -5.18251099e-02 -7.40696788e-02 -1.02639541e-01  4.90025021e-02
  -4.32080065e-04 -8.30889121e-02 -4.18180637e-02 -6.82735220e-02
   1.33202905e-02 -1.64523311e-02 -2.29327641e-02  3.62427197e-02
   8.20519999e-02  3.31585146e-02 -6.19554855e-02  6.66386560e-02
   5.87268285e-02  1.16251446e-01 -5.26020527e-02 -1.43454978e-02
   3.55307548e-03 -3.71782035e-02  9.11626499e-03 -3.44727822e-02]
 [-2.15962020e-04 -3.52531718e-03  3.51036973e-02 -6.55664727e-02
  -4.88555320e-02 -1.22419326e-02 -2.00629570e-02  5.72237074e-02
   6.98844343e-02 -1.34627204e-02 -5.21664321e-02 -4.74168435e-02
   1.91350207e-02 -2.59557236e-02 -5.57308793e-02  1.53374717e-01
   2.84870714e-02 -1.44080101e-02 -4.45477962e-02 -1.08545914e-01
  -3.86372767e-02 -3.22109759e-02 -3.87225747e-02  2.94440929e-02
  -6.88446835e-02 -4.53009158e-02  1.76989026e-02  6.67048693e-02
  -2.48055179e-02 -1.28605694e-01  1.20379385e-02  5.75979287e-03
   7.96334539e-03  1.64325302e-03  3.10640391e-02  1.73844565e-02
  -1.16809951e-02  3.04796617e-03 -1.46929190e-01 -1.09015089e-02
  -7.48626515e-02  2.53686421e-02 -5.27415462e-02 -6.77604228e-02
   4.03241254e-02 -6.05887361e-02  2.41580494e-02 -2.45162696e-01
  -5.42552471e-02  6.38939068e-02  5.26649272e-03 -1.10960845e-02
   1.88599247e-02  2.94021163e-02 -3.19394693e-02 -3.51214074e-02
   2.12123655e-02  6.54370561e-02  6.58967569e-02 -7.78985303e-03
   7.46564269e-02 -1.60356417e-01 -1.54773407e-02  9.33172256e-02
  -1.23867271e-02  5.06033830e-04 -1.09233379e-01  1.78166572e-02
   2.63169548e-03 -3.37485634e-02 -2.96300685e-04 -2.64238864e-02
  -4.57194285e-04 -5.28263599e-02 -3.41325216e-02 -5.61826443e-03
  -4.05272767e-02 -3.92675493e-03  3.05817928e-02  3.33991088e-02
  -9.53372288e-03 -1.70635030e-01  1.45475671e-03 -2.34057736e-02
   5.48900515e-02  5.02107292e-02  3.25867049e-02  5.84314130e-02
  -1.89905073e-02 -4.88712080e-02  5.04562259e-03 -1.27542168e-01
  -3.28809842e-02 -4.32978049e-02  3.80102657e-02 -4.70747761e-02
   1.92537345e-02 -2.59777214e-02  3.41700539e-02  3.45923379e-02
  -1.58273637e-01  2.28222553e-02  1.95905343e-02 -2.01321859e-02
  -4.15524915e-02  8.13878234e-03 -1.79326817e-01 -2.21875668e-01
   4.14186381e-02 -1.16181467e-02 -4.04511765e-02  3.27303133e-04
   4.59988751e-02  4.29318137e-02  2.55014393e-02 -5.52672818e-02
  -2.27310747e-01 -7.25829676e-02  3.59301642e-02 -9.86428484e-02
  -1.20220810e-01 -5.87842651e-02 -6.47020042e-02 -1.81223854e-01
   3.90001722e-02  7.90747628e-02  3.67482901e-02 -1.75073203e-02]
 [-2.10531037e-02 -7.55540431e-02  3.74020673e-02  3.44490819e-02
  -1.88713986e-02  6.35105073e-02  2.85466928e-02 -6.51347265e-02
  -5.47686554e-02  9.80927516e-03  3.63815986e-02  6.76095998e-03
   4.62254621e-02 -5.52824922e-02 -4.71731126e-02  7.99959805e-03
  -6.48545241e-03 -3.58568178e-03 -7.24502429e-02  7.63867423e-02
  -1.29151987e-02 -6.11103140e-02  1.30237220e-03  4.05237302e-02
   3.28071825e-02 -4.55630012e-03 -6.58116415e-02 -4.17982005e-02
   2.02008933e-02  1.12284213e-01  8.71146843e-03 -3.69155481e-02
   2.65167039e-02 -1.32824749e-01 -2.83116046e-02 -6.14448301e-02
  -4.97177877e-02 -6.48181215e-02 -4.98841107e-02  1.60339959e-02
   5.28344922e-02  3.77770849e-02  4.98563834e-02  1.06385844e-02
  -7.16700181e-02 -6.32876903e-02  7.02644885e-03  2.51256321e-02
   3.67397256e-02  2.80929338e-02  7.87811447e-03 -2.02533696e-02
  -1.56772360e-02  4.98416796e-02  6.33006692e-02 -7.61393979e-02
  -6.23506308e-02 -2.95683406e-02  2.10818630e-02  2.80310549e-02
   2.27342527e-02  3.36843207e-02  5.45256026e-02  4.17944379e-02
  -1.31237179e-01 -6.74356222e-02 -1.37894675e-01 -2.18729097e-02
  -4.92995046e-02 -5.37229739e-02  3.65551151e-02  3.01423576e-02
  -3.89594361e-02 -1.62050780e-02  9.89687145e-02 -1.57980081e-02
   2.59047542e-02  4.41207103e-02  2.08956626e-04 -5.43924458e-02
  -9.31630004e-03 -1.09695137e-01 -6.50601834e-02  1.72775649e-02
  -5.42165600e-02  8.69004130e-02  3.27066295e-02 -2.80376635e-02
   3.30865048e-02  4.19335924e-02  2.01188624e-02 -6.89080507e-02
  -4.31331918e-02 -6.46949336e-02  1.18866153e-02 -6.62626401e-02
  -1.66478865e-02  1.41581139e-02  4.61044312e-02 -6.10153452e-02
   9.80720576e-03 -1.46543711e-01 -1.18467687e-02  4.34000567e-02
  -3.73259299e-02 -1.18157556e-02  9.36427638e-02  2.64748111e-02
  -9.87448078e-03 -6.35086447e-02  2.52035297e-02 -5.80656417e-02
  -4.39903811e-02 -6.56960160e-02 -5.03948368e-02  3.21169980e-02
   3.05968896e-02  3.20203528e-02  2.14969404e-02 -1.63567029e-02
   8.65416676e-02  4.12231535e-02  1.22088473e-02  9.33249220e-02
  -4.79529202e-02 -6.00254387e-02 -1.91375203e-02 -2.44430732e-02]
 [-4.27077562e-02 -2.85017155e-02 -1.39014209e-02 -1.26223837e-03
  -6.86407415e-03  5.78164868e-02 -2.56484877e-02 -4.62356322e-02
   3.10007040e-03  1.69737656e-02  1.66352373e-02  1.47048295e-01
  -2.56181937e-02 -6.43023150e-03 -5.43123186e-02 -5.14782444e-02
  -2.93939263e-02  2.36443672e-02 -2.24955119e-02  1.38666227e-01
  -6.22922666e-02  8.16891622e-03 -6.86264858e-02  3.42904008e-04
   3.98244448e-02 -4.65545058e-02  5.09086065e-02  3.16578224e-02
  -6.52224123e-02  5.73193766e-02  2.39400212e-02 -7.94089958e-03
   7.44903693e-03  1.71698295e-02  4.90982607e-02  1.77601958e-03
  -1.81838974e-01 -3.51517797e-02  1.07779823e-01  1.01357186e-03
  -6.84537888e-02 -5.05941138e-02 -6.22397587e-02 -1.54619301e-02
  -2.07638219e-02 -6.88490272e-02  6.56953489e-04  1.82073265e-02
   1.88103579e-02  1.06123202e-01 -4.52350117e-02 -4.94673057e-03
   2.10642517e-02 -8.43483806e-02 -1.11082532e-01  4.42933105e-02
   2.32936181e-02  2.63779107e-02 -5.73056862e-02  2.02364102e-02
  -5.42403795e-02  8.26945007e-02 -6.53363317e-02  1.00862861e-01
  -6.84280917e-02 -4.04942520e-02 -2.94310264e-02  3.04678027e-02
   3.63277756e-02 -1.20069563e-01  5.26807532e-02 -2.16498841e-02
  -5.65037765e-02  1.29793035e-02 -1.33915648e-01 -4.44990061e-02
  -5.69764189e-02 -3.58911529e-02  3.19753699e-02  1.82187315e-02
  -2.84006586e-03 -1.22026950e-02  1.99057870e-02  5.12316963e-03
   4.87172157e-02 -2.53735855e-02  1.12744691e-02  4.70854007e-02
  -2.95177922e-02 -2.70523876e-01  2.75202990e-02 -4.80485074e-02
  -4.81481925e-02  4.18563373e-02  2.45255157e-02 -1.63274989e-01
   3.34096774e-02 -5.33617623e-02  1.08394818e-02 -6.70155436e-02
   4.84902672e-02 -2.22528383e-01  3.46811600e-02  2.42702360e-03
  -4.87483740e-02 -5.94086945e-02  1.44136511e-02  1.33445665e-01
   6.98745623e-02 -1.05284363e-01 -6.43377379e-02 -1.00446390e-02
   1.13424510e-01  8.68770182e-02 -6.43304065e-02  4.32728641e-02
   3.64660956e-02 -6.00570906e-03 -3.04100104e-02  5.76496199e-02
   8.20703432e-02  7.06452057e-02 -4.00274321e-02  1.21816561e-01
  -1.14206355e-02 -6.45571947e-02 -9.09945667e-02  4.58624028e-02]
 [-5.26346974e-02  1.85026862e-02  1.06633855e-02 -7.39235878e-02
  -9.66435298e-02 -2.12620702e-02 -4.98165265e-02 -2.01074369e-02
  -3.89595400e-03  6.94551272e-03 -8.98158643e-03  4.20080982e-02
  -4.46002968e-02  1.02930330e-02 -1.02596628e-02  5.03407307e-02
   4.16609235e-02 -3.06317843e-02 -1.33328792e-02  8.36948976e-02
  -5.56049421e-02 -3.30480300e-02 -3.96793783e-02  4.72558290e-02
   2.09101327e-02  2.06935182e-02  3.36434022e-02 -1.21281467e-01
  -3.23464610e-02  1.83697324e-02 -1.60591118e-02  7.00431764e-02
  -3.98397595e-02 -7.42974654e-02  7.24866753e-03 -7.81740621e-02
   7.50223920e-02  1.04624406e-02 -1.87646542e-02 -8.07826817e-02
  -1.55340107e-02  2.95209754e-02 -3.21722515e-02 -4.11049910e-02
  -8.76744017e-02 -9.03356541e-03 -5.56969121e-02 -5.88060683e-03
  -1.55769726e-02  9.76904407e-02 -1.38522655e-01 -5.17434590e-02
  -1.10481039e-01  3.03623732e-02  1.79998316e-02 -1.53079316e-01
  -5.08078076e-02 -1.52550846e-01  7.08136261e-02  3.07350829e-02
  -7.20026121e-02 -2.71453951e-02  2.70787943e-02  1.99209880e-02
  -2.49621160e-02 -1.45786572e-02 -1.05240300e-01 -4.71791066e-02
   3.46452594e-02  3.09218150e-02 -1.51308132e-02  5.49627095e-02
   1.75982088e-01  1.90713629e-02  5.98354414e-02  1.00255478e-02
  -7.32616335e-02 -9.00421198e-03 -9.65126082e-02 -2.98579298e-02
   3.33914049e-02 -2.86906715e-02 -5.22908866e-02 -1.54155409e-02
  -5.94369955e-02 -3.57999913e-02 -5.10689840e-02  3.20364311e-02
   5.85559420e-02  5.17831631e-02 -3.27559523e-02 -5.72384521e-02
  -2.00443249e-02 -2.04065815e-02  1.30226533e-03  5.75866215e-02
  -4.68039252e-02 -1.03782620e-02  1.21550085e-02  2.44496521e-02
   1.60734206e-01 -7.67498985e-02 -2.05711219e-02  6.45556450e-02
  -2.30263844e-02  1.23031065e-03  5.88976741e-02 -6.51853010e-02
   4.09990251e-02 -8.66086408e-02  4.47457619e-02  6.23459974e-03
  -1.31458908e-01 -7.77363852e-02  4.47413921e-02 -2.55506113e-02
   3.11695468e-02 -1.08475246e-01 -3.25283147e-02  7.14679882e-02
  -6.61033094e-02 -1.10252649e-02  4.02852446e-02  1.70161292e-01
  -9.02264789e-02  1.14769693e-02 -3.65455374e-02 -1.08617693e-02]
 [-1.73612088e-02 -4.37554382e-02  4.08112183e-02 -1.57920308e-02
  -2.65557896e-02  4.83793765e-03  6.56369999e-02  4.78075258e-02
  -8.16211384e-03 -4.64953110e-03 -6.12311326e-02  3.00451722e-02
   3.72950509e-02 -1.69582739e-02 -1.92299876e-02  1.12008348e-01
   3.81432250e-02  5.31856455e-02 -1.30029498e-02 -9.87786576e-02
  -2.18747538e-02 -1.50045343e-02 -5.64407595e-02  3.84171610e-04
  -1.43857878e-02 -1.59262903e-02 -6.83195964e-02  3.46384160e-02
  -1.66017432e-02  1.52635118e-02 -1.65625624e-02 -4.24943753e-02
  -3.76290344e-02 -1.37950063e-01 -6.17429689e-02  2.60719261e-03
  -4.88248877e-02 -6.88253269e-02 -9.41903591e-02 -1.54224327e-02
  -1.92494001e-02 -6.62789941e-02  3.50218974e-02 -2.02413350e-02
   3.07900179e-03 -6.76715001e-02 -1.12136835e-02 -1.67651586e-02
  -5.63481785e-02 -2.41091419e-02  8.84740055e-02 -8.74866545e-02
  -1.16113173e-02  2.36509112e-03  1.29243415e-02 -1.37506723e-01
  -1.31196463e-02  1.83995496e-02 -6.19836710e-03  2.49531642e-02
   1.01496682e-01 -2.66573392e-02 -1.08489536e-01 -8.49270001e-02
  -4.92841750e-02  5.34865167e-03 -7.28761256e-02  3.82389873e-03
  -5.91538101e-02  3.03123780e-02  2.98060253e-02  2.63181590e-02
   1.27456812e-02 -4.28773351e-02 -3.18073742e-02 -4.41090576e-03
   6.52541872e-03 -3.51437218e-02 -8.35920393e-04  3.91668566e-02
  -2.64322460e-02 -7.13534877e-02 -5.75334625e-03 -1.98366232e-02
  -3.62819880e-02  1.51932731e-01 -3.18444893e-03 -8.49471316e-02
  -1.15620820e-02  8.20321869e-03 -1.64748374e-02  1.11283148e-02
  -1.97849069e-02 -1.31079145e-02  2.27716453e-02  1.58551902e-01
   3.60726975e-02 -2.90059242e-02  2.54476778e-02 -5.35093844e-02
   5.23463152e-02 -6.77317008e-02 -2.39102002e-02 -3.29010263e-02
   4.73401858e-04  2.08133217e-02 -4.63889688e-02 -1.39262021e-01
   3.25527191e-02  8.06144327e-02 -7.95239117e-03 -2.75746342e-02
  -1.15563743e-01  1.07176252e-01  3.77037600e-02 -5.30326292e-02
  -5.35096915e-04 -1.08060114e-01 -4.12327051e-02 -3.45925801e-02
   1.53311312e-01  3.33205275e-02 -3.78112420e-02  2.63664108e-02
  -2.96918787e-02  5.09280665e-03 -4.69961800e-02 -6.88890461e-03]
 [ 8.19393783e-04 -6.36529457e-03 -6.76749721e-02  1.63329113e-02
  -3.72089222e-02  3.18793952e-02 -7.60534592e-03 -5.33356331e-03
   2.02970281e-02 -3.39345783e-02 -3.93409617e-02  7.01384321e-02
   4.76946216e-03 -1.80922542e-02 -6.02385439e-02  6.95748031e-02
   3.03850714e-02 -7.05521414e-03 -4.40565832e-02 -8.16457625e-03
   8.32844526e-04 -1.08116619e-01 -2.60961521e-02  3.77549566e-02
  -1.52736828e-02 -4.92081493e-02 -5.70497215e-02 -5.49667217e-02
  -5.63401319e-02 -3.55181731e-02  1.07394848e-02 -2.03652736e-02
  -6.28406331e-02  4.12486121e-02 -8.21291190e-03 -1.57935992e-02
   8.69902596e-02 -2.43052412e-02  1.54544590e-02 -1.48979565e-02
   1.07776318e-02 -2.90382188e-02  3.87175046e-02  1.14128328e-04
  -2.34217029e-02 -1.00801632e-01 -1.45855611e-02  4.51770127e-02
   1.88652668e-02  6.76504970e-02  8.67844895e-02 -6.92478716e-02
   4.09555510e-02 -1.31944090e-01  1.19728044e-01 -1.43005059e-03
   1.67812798e-02 -6.20080084e-02 -7.16977492e-02  2.07687654e-02
   5.74912224e-03 -1.06546044e-01 -1.10329270e-01 -2.81695984e-02
   4.88867909e-02 -4.03852463e-02  3.18441428e-02 -1.36880782e-02
  -1.89037230e-02 -3.24643813e-02  2.13823561e-02 -5.35299778e-02
  -5.04227169e-02 -2.93126833e-02  1.70067940e-02 -6.63057193e-02
  -6.84264004e-02 -5.46006896e-02  3.50425206e-02 -6.12990838e-03
   1.09879123e-02 -2.72337254e-02 -3.92189957e-02  3.85636464e-02
  -6.93894997e-02  8.75429511e-02 -4.97173332e-03 -3.70691903e-02
  -9.55716427e-03 -1.87772125e-01 -4.25568298e-02  3.65615785e-02
   2.42662011e-03 -6.34689927e-02 -3.27756628e-02 -8.65683891e-03
  -5.57486638e-02 -5.89102246e-02 -1.06397467e-02  1.84051506e-02
   4.23879735e-02  5.94930574e-02  4.18245941e-02 -3.61273587e-02
  -7.72602484e-02 -6.03581108e-02 -1.37613826e-02  1.36862947e-02
   2.81009618e-02  5.35599738e-02 -5.07808104e-02 -1.39537025e-02
   1.21574057e-02  7.54809976e-02  4.85415794e-02 -8.24760180e-03
   8.39043483e-02 -1.17877964e-02 -6.50909394e-02  2.10314728e-02
   3.25887725e-02  5.66084497e-02 -6.63796812e-03  3.97391245e-02
   7.16741383e-02 -8.00187513e-02 -9.53298807e-02 -1.51952729e-02]
 [-7.59312063e-02 -7.01635778e-02  3.22705545e-02 -1.00702858e-02
   1.16773872e-02 -3.28956842e-02 -8.25677663e-02 -3.30820531e-02
  -7.50640854e-02  2.22833622e-02 -5.94916120e-02 -6.02507265e-03
  -5.30504845e-02  2.95513719e-02  3.40828188e-02  6.96306080e-02
  -5.31906076e-02  4.80834022e-02 -7.31848180e-02 -1.39691576e-01
   2.75749760e-03  1.44830979e-02  2.99547706e-02  3.88339907e-02
   1.96688878e-03 -2.44811494e-02  4.64946292e-02  1.03659384e-01
   2.87994146e-02 -7.92303905e-02 -8.28910321e-02 -6.97909370e-02
   1.77280698e-02 -5.33490032e-02  4.72343378e-02  1.14429230e-02
  -3.05040609e-02  2.82156076e-02  1.54589191e-02 -6.05628341e-02
  -5.65282963e-02 -1.31825367e-02 -2.59579327e-02 -1.11800944e-02
  -6.35289401e-02 -6.28171712e-02 -6.11544494e-03 -2.19037548e-01
  -5.38278595e-02 -5.37966192e-02 -1.93179026e-02 -1.09068051e-01
  -9.60647408e-03  5.67340143e-02 -1.62491258e-02 -8.76584426e-02
   3.89590785e-02  3.32039259e-02 -2.19974313e-02  3.26757692e-02
   1.35033712e-01  1.00258954e-01 -9.93028358e-02 -1.18545759e-02
  -1.90114938e-02 -3.11678145e-02 -1.01854317e-01 -6.88329935e-02
  -3.81547473e-02  1.17780240e-02 -4.91556190e-02  6.66875020e-02
  -3.71663203e-03  7.36095337e-03  9.61198099e-03 -3.32637802e-02
  -5.15724048e-02  4.48717140e-02  1.51541065e-02  9.83519107e-03
  -6.25397265e-02 -1.14316583e-01  8.23670998e-03 -7.48342350e-02
   2.43130382e-02 -3.85666750e-02 -3.65810655e-03 -7.03042075e-02
  -2.08941172e-03 -1.59914494e-02  1.88218355e-02  6.59102155e-03
  -9.48438421e-03  3.63019332e-02  2.84707099e-02 -3.90503649e-03
   5.25341593e-02 -5.97081110e-02 -5.30716106e-02 -4.41556796e-03
  -1.26165003e-01  1.01103708e-01 -3.66065912e-02 -3.02273184e-02
  -5.81021421e-02 -5.98318204e-02 -1.05145305e-01 -9.24000219e-02
   5.20162955e-02  1.06357142e-01 -6.47113100e-02 -4.60626893e-02
   1.62666067e-02  1.07806310e-01  2.84852516e-02  1.70916896e-02
  -1.52832314e-01 -2.62564849e-02 -7.71232843e-02 -1.15258627e-01
  -1.34411559e-01 -1.66718304e-01 -4.81867790e-02 -9.93640348e-02
   2.41032988e-02  4.17801961e-02  8.53089243e-02 -2.14099447e-04]
 [-2.30647866e-02 -3.51484423e-03 -2.85718832e-02  4.64223512e-02
   4.87708077e-02  5.16363941e-02  1.65819824e-02 -3.47293727e-02
   7.76377395e-02 -1.62275266e-02 -4.56436947e-02  6.77174255e-02
   2.71560643e-02 -6.47135079e-02 -6.20032810e-02 -7.41166100e-02
  -3.45609849e-04 -1.30516663e-02 -3.95147353e-02 -1.05630420e-02
  -3.46211977e-02 -1.30339026e-01  3.16184759e-02  2.84511093e-02
  -5.68309985e-02 -4.17703316e-02  3.38415802e-02 -1.44763524e-02
   2.09857468e-02  6.50832336e-03  2.94263531e-02 -1.85958389e-02
  -2.40093432e-02  2.02729050e-02 -7.00874734e-05 -4.04714532e-02
   6.11864664e-02  3.96881774e-02  3.36314552e-02 -1.64631214e-02
  -1.08332433e-01  8.09859112e-03 -5.13721742e-02 -6.90570101e-02
   4.59238142e-02  2.89091188e-02 -3.92823592e-02 -5.57582378e-02
  -6.30837083e-02  1.91581268e-02 -8.86092484e-02  6.48001656e-02
   4.94473837e-02 -2.22868957e-02  6.48519620e-02  1.56037882e-03
   2.09129434e-02 -7.38418624e-02 -1.65696591e-02  4.04196279e-03
  -2.26389570e-03  4.53344956e-02  1.68434680e-02  6.97203577e-02
  -7.81989619e-02 -6.39370084e-02 -1.49732649e-01 -1.19661652e-02
   1.90949775e-02 -7.71250054e-02 -4.05952185e-02 -5.43968081e-02
  -4.35981303e-02 -3.65077816e-02 -7.96167459e-03 -3.61708775e-02
   2.99649723e-02 -2.74447985e-02 -3.49078444e-03 -4.96614985e-02
   1.71183515e-02  1.12989284e-02  1.68650784e-02  4.70695924e-03
  -4.27028760e-02  1.60582867e-02  4.42427248e-02  1.58129744e-02
   5.07009141e-02  7.82134458e-02  5.47663979e-02 -8.15219134e-02
  -2.23686616e-03 -7.70404190e-02 -6.54184595e-02 -5.87268881e-02
   1.30521199e-02  4.07180414e-02  1.16099706e-02  1.75143983e-02
  -3.42494287e-02 -1.85244069e-01  3.49302054e-03 -9.59269746e-05
   1.71574913e-02 -9.12669022e-03 -3.93588329e-03  8.72373488e-03
   5.82536161e-02  6.73303753e-02 -6.53315857e-02 -4.73508574e-02
   2.98582055e-02  5.72133437e-02  2.20533111e-03  2.35151639e-03
   2.51136832e-02  9.67094861e-03 -9.94698238e-03  1.24018509e-02
   1.40363634e-01 -2.86291502e-02 -1.39470305e-02  6.16419874e-02
  -9.35912058e-02 -6.91996664e-02 -7.13982806e-02  3.31857949e-02]
 [-6.02974296e-02 -5.39904535e-02 -4.29901741e-02  1.45961915e-03
  -1.42307952e-02  2.69274674e-02 -8.26017931e-02  1.92466564e-02
   9.50659961e-02  1.99930128e-02  5.25530335e-03  1.24380179e-02
   3.77355292e-02  2.48399507e-02 -4.34747301e-02 -1.30751148e-01
   4.33205664e-02  1.45787932e-02 -1.93787981e-02  9.99698862e-02
   1.40843717e-02 -8.11226368e-02 -1.89941823e-02 -2.75745392e-02
  -1.26644028e-02 -3.86710465e-02 -7.37787690e-04  4.33874391e-02
   1.09271947e-02 -1.71942040e-01 -4.24501412e-02 -5.83615340e-02
   2.45398231e-04  6.38030171e-02  6.41706213e-02  3.44499275e-02
  -2.28125602e-02 -1.51278693e-02  6.35948032e-02 -3.64024099e-03
  -5.73465526e-02 -5.93819879e-02  2.50269603e-02 -2.66371612e-02
  -4.46836576e-02  2.19805203e-02 -5.22066653e-03 -1.19811138e-02
